{"learner":{"attributes":{"best_iteration":"56","best_score":"0.7210654779220931"},"feature_names":[],"feature_types":[],"gradient_booster":{"model":{"cats":{"enc":[],"feature_segments":[],"sorted_idx":[]},"gbtree_model_param":{"num_parallel_tree":"1","num_trees":"231"},"iteration_indptr":[0,3,6,9,12,15,18,21,24,27,30,33,36,39,42,45,48,51,54,57,60,63,66,69,72,75,78,81,84,87,90,93,96,99,102,105,108,111,114,117,120,123,126,129,132,135,138,141,144,147,150,153,156,159,162,165,168,171,174,177,180,183,186,189,192,195,198,201,204,207,210,213,216,219,222,225,228,231],"tree_info":[0,1,2,0,1,2,0,1,2,0,1,2,0,1,2,0,1,2,0,1,2,0,1,2,0,1,2,0,1,2,0,1,2,0,1,2,0,1,2,0,1,2,0,1,2,0,1,2,0,1,2,0,1,2,0,1,2,0,1,2,0,1,2,0,1,2,0,1,2,0,1,2,0,1,2,0,1,2,0,1,2,0,1,2,0,1,2,0,1,2,0,1,2,0,1,2,0,1,2,0,1,2,0,1,2,0,1,2,0,1,2,0,1,2,0,1,2,0,1,2,0,1,2,0,1,2,0,1,2,0,1,2,0,1,2,0,1,2,0,1,2,0,1,2,0,1,2,0,1,2,0,1,2,0,1,2,0,1,2,0,1,2,0,1,2,0,1,2,0,1,2,0,1,2,0,1,2,0,1,2,0,1,2,0,1,2,0,1,2,0,1,2,0,1,2,0,1,2,0,1,2,0,1,2,0,1,2,0,1,2,0,1,2,0,1,2,0,1,2,0,1,2,0,1,2,0,1,2,0,1,2],"trees":[{"base_weights":[-1.20986335E-1,-4.9571472E-1,2.4908921E-1,-5.2613395E-1,2.6930688E-2,-1.6957808E-1,7.3935664E-1,-1.10599704E-1,-5.696037E-1,-6.345729E-2,8.2894824E-2,2.4327052E-1,1.0175844E0,3.943142E-2,-5.9723612E-2,-6.33862E-1,-3.6675575E-1,-3.8958764E-1,3.4012613E-1,6.4833885E-1,-3.0253467E-1,1.2818612E0,3.2887772E-1,-1.4837372E-2,-6.593863E-2,-4.5913465E-2,-5.9691776E-2,2.6930688E-2,-6.4849064E-2,-2.5589448E-1,6.799439E-1,9.6621595E-2,-9.3717165E-3,-5.78128E-2,6.046658E-3,4.7615528E-2,1.5600628E-1,7.856672E-2,-3.5721403E-2,-4.6660174E-2,4.7728468E-2,-5.883963E-2,1.2205767E-2,2.8772214E-2,1.1597838E-1],"categories":[],"categories_nodes":[],"categories_segments":[],"categories_sizes":[],"default_left":[0,0,0,0,0,0,0,0,0,0,0,0,0,0,0,0,0,0,0,0,0,0,0,0,0,0,0,0,0,0,0,0,0,0,0,0,0,0,0,0,0,0,0,0,0],"id":0,"left_children":[1,3,5,7,-1,9,11,13,15,-1,17,19,21,-1,-1,23,25,27,29,31,33,35,37,-1,-1,39,-1,-1,-1,41,43,-1,-1,-1,-1,-1,-1,-1,-1,-1,-1,-1,-1,-1,-1],"loss_changes":[3.0149286E1,2.653038E0,2.2621614E1,1.8178673E0,0E0,7.0882826E0,6.7460976E0,2.9634295E0,9.931145E-1,0E0,4.9606185E0,4.5119696E0,5.4297714E0,0E0,0E0,7.699814E-1,1.8182092E0,2.6430216E0,5.4917717E0,2.8086705E0,9.3508625E-1,4.387535E0,3.4962578E0,0E0,0E0,2.7589936E0,0E0,0E0,0E0,1.3612413E0,2.864873E0,0E0,0E0,0E0,0E0,0E0,0E0,0E0,0E0,0E0,0E0,0E0,0E0,0E0,0E0],"parents":[2147483647,0,0,1,1,2,2,3,3,5,5,6,6,7,7,8,8,10,10,11,11,12,12,15,15,16,16,17,17,18,18,19,19,20,20,21,21,22,22,25,25,29,29,30,30],"right_children":[2,4,6,8,-1,10,12,14,16,-1,18,20,22,-1,-1,24,26,28,30,32,34,36,38,-1,-1,40,-1,-1,-1,42,44,-1,-1,-1,-1,-1,-1,-1,-1,-1,-1,-1,-1,-1,-1],"split_conditions":[6.9977617E0,5.149111E1,7.016105E1,1.358429E0,2.6930688E-2,1.565028E1,3.881738E1,1.0120554E3,4.094316E0,-6.345729E-2,3.9586094E1,2.2278156E1,7.103679E1,3.943142E-2,-5.9723612E-2,1.702838E-1,4.7594767E0,7.38768E0,2.382297E0,4.606908E0,5.5989517E3,1.4994324E0,8.3080635E0,-1.4837372E-2,-6.593863E-2,6.819606E1,-5.9691776E-2,2.6930688E-2,-6.4849064E-2,2.751376E1,6.553138E1,9.6621595E-2,-9.3717165E-3,-5.78128E-2,6.046658E-3,4.7615528E-2,1.5600628E-1,7.856672E-2,-3.5721403E-2,-4.6660174E-2,4.7728468E-2,-5.883963E-2,1.2205767E-2,2.8772214E-2,1.1597838E-1],"split_indices":[9,7,10,33,0,7,3,22,14,0,3,30,19,0,0,29,26,9,26,33,5,27,8,0,0,10,0,0,0,7,4,0,0,0,0,0,0,0,0,0,0,0,0,0,0],"split_type":[0,0,0,0,0,0,0,0,0,0,0,0,0,0,0,0,0,0,0,0,0,0,0,0,0,0,0,0,0,0,0,0,0,0,0,0,0,0,0,0,0,0,0,0,0],"sum_hessian":[2.155149E2,1.0691559E2,1.08599304E2,1.0312724E2,3.7883477E0,5.8929855E1,4.966945E1,1.0102261E1,9.302499E1,2.0204521E1,3.8725334E1,1.8520811E1,3.1148636E1,5.0511303E0,5.0511303E0,6.903211E1,2.3992868E1,1.3469681E1,2.5255651E1,1.0523188E1,7.997623E0,2.1888231E1,9.260406E0,3.7883477E0,6.524377E1,1.0523188E1,1.3469681E1,3.7883477E0,9.681334E0,9.260406E0,1.5995246E1,7.155768E0,3.3674202E0,4.2092752E0,3.7883477E0,6.313913E0,1.5574318E1,5.472058E0,3.7883477E0,5.8929853E0,4.630203E0,4.630203E0,4.630203E0,9.681334E0,6.313913E0],"tree_param":{"num_deleted":"0","num_feature":"36","num_nodes":"45","size_leaf_vector":"1"}},{"base_weights":[3.707046E-1,2.4636313E-1,7.4557966E-1,2.7828106E-1,-5.133998E-1,8.393597E-1,2.601844E-1,7.968859E-1,2.3218986E-1,-6.810322E-2,-2.299832E-2,2.06349E-2,8.9546955E-1,6.6515684E-2,-2.2248339E-2,2.2106579E-2,9.593356E-2,-1.6795625E-1,2.750087E-1,9.6112895E-1,2.8548589E-2,3.5004306E-1,-6.669762E-2,3.3361048E-1,-1.7054263E-1,5.893673E-1,1.058475E-1,8.9763924E-2,-1.6297616E-2,4.871456E-2,1.6812932E-2,-3.964444E-2,5.1756173E-2,2.1686421E-3,9.7783E-2],"categories":[],"categories_nodes":[],"categories_segments":[],"categories_sizes":[],"default_left":[0,0,0,0,0,0,0,0,0,0,0,0,0,0,0,0,0,0,0,0,0,0,0,0,0,0,0,0,0,0,0,0,0,0,0],"id":1,"left_children":[1,3,5,7,9,11,13,15,17,-1,-1,-1,19,-1,-1,-1,-1,21,23,25,-1,27,-1,29,31,33,-1,-1,-1,-1,-1,-1,-1,-1,-1],"loss_changes":[1.1296677E1,4.664093E0,2.5516014E0,4.10734E0,2.1719122E-1,1.6106377E0,2.3572197E0,1.1205053E0,2.8960161E0,0E0,0E0,0E0,1.5733337E0,0E0,0E0,0E0,0E0,4.5499716E0,3.9898329E0,8.681946E-1,0E0,2.63233E0,0E0,3.308898E0,3.029686E0,2.3630297E0,0E0,0E0,0E0,0E0,0E0,0E0,0E0,0E0,0E0],"parents":[2147483647,0,0,1,1,2,2,3,3,4,4,5,5,6,6,7,7,8,8,12,12,17,17,18,18,19,19,21,21,23,23,24,24,25,25],"right_children":[2,4,6,8,10,12,14,16,18,-1,-1,-1,20,-1,-1,-1,-1,22,24,26,-1,28,-1,30,32,34,-1,-1,-1,-1,-1,-1,-1,-1,-1],"split_conditions":[1.0211457E3,5.003641E1,9.877798E1,2.6826357E1,5.7739445E1,9.567946E-1,1.6415379E1,1.0008657E3,7.335182E0,-6.810322E-2,-2.299832E-2,2.06349E-2,1.0344873E3,6.6515684E-2,-2.2248339E-2,2.2106579E-2,9.593356E-2,6.1439056E0,7.027097E1,5.207127E1,2.8548589E-2,1.6414429E0,-6.669762E-2,9.691435E1,5.5715446E1,1.21640724E2,1.058475E-1,8.9763924E-2,-1.6297616E-2,4.871456E-2,1.6812932E-2,-3.964444E-2,5.1756173E-2,2.1686421E-3,9.7783E-2],"split_indices":[28,7,11,3,1,20,12,28,24,0,0,0,28,0,0,0,0,17,4,1,0,24,0,11,3,2,0,0,0,0,0,0,0,0,0],"split_type":[0,0,0,0,0,0,0,0,0,0,0,0,0,0,0,0,0,0,0,0,0,0,0,0,0,0,0,0,0,0,0,0,0,0,0],"sum_hessian":[2.4529346E2,1.8544185E2,5.9851604E1,1.7857364E2,6.8682165E0,4.954928E1,1.0302325E1,1.3245847E1,1.6532779E2,3.4341083E0,3.4341083E0,4.4152822E0,4.5133995E1,5.396456E0,4.905869E0,3.4341083E0,9.811738E0,1.5698781E1,1.4962901E2,4.0228127E1,4.905869E0,7.8493905E0,7.8493905E0,1.3245847E2,1.7170542E1,9.811738E0,3.0416388E1,3.4341083E0,4.4152822E0,6.7701E1,6.475747E1,1.3245847E1,3.9246953E0,4.4152822E0,5.396456E0],"tree_param":{"num_deleted":"0","num_feature":"36","num_nodes":"35","size_leaf_vector":"1"}},{"base_weights":[-3.398857E-1,2.7712998E-1,-4.823019E-1,8.350891E-1,-2.2110324E-1,-5.5752E-1,-1.4053448E-1,2.1998073E-1,1.3633928E0,-4.387593E-1,2.8911356E-2,-6.143546E-1,-2.3771596E-1,4.127192E-1,-4.5072845E-1,7.937762E-2,-2.4233358E-2,1.5813062E-1,6.918258E-2,6.6198246E-3,-6.2153112E-2,-2.1208327E-2,-6.2990886E-1,-4.2583042E-1,5.7285488E-2,9.245606E-1,-3.6568675E-2,2.081107E-2,-5.8394432E-2,-6.461899E-2,-3.3239156E-1,-6.37356E-2,4.4996824E-2,4.4996824E-2,1.17554106E-1,-5.317519E-2,-3.3746895E-3],"categories":[],"categories_nodes":[],"categories_segments":[],"categories_sizes":[],"default_left":[0,0,0,0,0,0,0,0,0,0,0,0,0,0,0,0,0,0,0,0,0,0,0,0,0,0,0,0,0,0,0,0,0,0,0,0,0],"id":2,"left_children":[1,3,5,7,9,11,13,15,17,19,-1,21,23,25,27,-1,-1,-1,-1,-1,-1,-1,29,31,-1,33,-1,-1,-1,-1,35,-1,-1,-1,-1,-1,-1],"loss_changes":[1.7747192E1,1.0810715E1,4.1175346E0,5.627638E0,2.4571052E0,2.2793503E0,5.468246E0,2.7443802E0,3.1388092E-1,1.4353065E0,0E0,5.713997E-1,3.562997E0,4.951606E0,1.8944197E0,0E0,0E0,0E0,0E0,0E0,0E0,0E0,3.0821228E-1,3.6659415E0,0E0,3.3691835E-1,0E0,0E0,0E0,0E0,4.3818456E-1,0E0,0E0,0E0,0E0,0E0,0E0],"parents":[2147483647,0,0,1,1,2,2,3,3,4,4,5,5,6,6,7,7,8,8,9,9,11,11,12,12,13,13,14,14,22,22,23,23,25,25,30,30],"right_children":[2,4,6,8,10,12,14,16,18,20,-1,22,24,26,28,-1,-1,-1,-1,-1,-1,-1,30,32,-1,34,-1,-1,-1,-1,36,-1,-1,-1,-1,-1,-1],"split_conditions":[5.973109E1,6.8070188E0,8.204938E1,6.4721405E1,2.6870413E1,1.0020759E1,6.652475E0,5.323415E1,8.382315E1,1.0044919E3,2.8911356E-2,9.933485E2,1.5294775E2,3.176309E0,1.0021527E3,7.937762E-2,-2.4233358E-2,1.5813062E-1,6.918258E-2,6.6198246E-3,-6.2153112E-2,-2.1208327E-2,7.62545E1,3.0376652E1,5.7285488E-2,1.8183708E0,-3.6568675E-2,2.081107E-2,-5.8394432E-2,-6.461899E-2,5.9983017E1,-6.37356E-2,4.4996824E-2,4.4996824E-2,1.17554106E-1,-5.317519E-2,-3.3746895E-3],"split_indices":[10,9,13,19,18,8,9,25,31,34,0,34,2,21,16,0,0,0,0,0,0,0,13,12,0,20,0,0,0,0,1,0,0,0,0,0,0],"split_type":[0,0,0,0,0,0,0,0,0,0,0,0,0,0,0,0,0,0,0,0,0,0,0,0,0,0,0,0,0,0,0,0,0,0,0,0,0],"sum_hessian":[1.9944304E2,3.7224144E1,1.622189E2,1.7240656E1,1.9983488E1,1.3243959E2,2.9779316E1,8.620328E0,8.620328E0,1.4105991E1,5.8774962E0,1.1167243E2,2.0767155E1,1.05794935E1,1.9199821E1,3.5264978E0,5.09383E0,5.4856634E0,3.1346648E0,3.918331E0,1.018766E1,4.7019973E0,1.06970436E2,1.7240656E1,3.5264978E0,6.2693295E0,4.310164E0,3.1346648E0,1.6065157E1,1.0030927E2,6.661163E0,1.4105991E1,3.1346648E0,3.1346648E0,3.1346648E0,3.5264978E0,3.1346648E0],"tree_param":{"num_deleted":"0","num_feature":"36","num_nodes":"37","size_leaf_vector":"1"}},{"base_weights":[-9.071799E-2,-4.7062504E-1,2.680598E-1,-5.215253E-1,9.3778305E-2,5.618874E-1,1.8542495E-2,6.435674E-2,-5.6272036E-1,-5.5987943E-2,6.689139E-2,3.1673506E-2,8.2624316E-1,1.3806373E-1,-5.525289E-2,4.4943344E-2,-3.0981643E-2,-6.376927E-1,-4.1126928E-1,5.1598437E-2,-2.4752986E-1,1.9468637E-1,1.0639534E0,-5.887692E-2,2.2706872E-1,-4.2241523E-1,-6.8483435E-2,-1.1796815E-1,-6.1277922E-2,-5.128504E-2,3.371678E-2,7.561906E-2,-5.654472E-2,1.2586695E-1,3.8335636E-2,6.37721E-1,6.899601E-2,7.927287E-3,-6.259699E-2,-4.6938658E-2,8.230888E-2,1.00464165E-1,-3.209327E-2,-3.0709973E-2,3.0313313E-2],"categories":[],"categories_nodes":[],"categories_segments":[],"categories_sizes":[],"default_left":[0,0,0,0,0,0,0,0,0,0,0,0,0,0,0,0,0,0,0,0,0,0,0,0,0,0,0,0,0,0,0,0,0,0,0,0,0,0,0,0,0,0,0,0,0],"id":3,"left_children":[1,3,5,7,9,11,13,15,17,-1,-1,19,21,23,-1,-1,-1,25,27,-1,29,31,33,-1,35,37,-1,39,-1,-1,-1,-1,-1,-1,-1,41,43,-1,-1,-1,-1,-1,-1,-1,-1],"loss_changes":[2.9873768E1,3.104601E0,8.265548E0,2.3946972E0,4.0010476E0,7.2349663E0,4.313433E0,1.1934958E0,7.755699E-1,0E0,0E0,2.5989254E0,4.976597E0,3.5063481E0,0E0,0E0,0E0,3.1273842E-1,1.8828993E0,0E0,2.0761003E0,4.980138E0,2.812357E0,0E0,3.0178304E0,1.4043853E0,0E0,5.251181E0,0E0,0E0,0E0,0E0,0E0,0E0,0E0,4.8912086E0,3.1909308E0,0E0,0E0,0E0,0E0,0E0,0E0,0E0,0E0],"parents":[2147483647,0,0,1,1,2,2,3,3,4,4,5,5,6,6,7,7,8,8,11,11,12,12,13,13,17,17,18,18,20,20,21,21,22,22,24,24,25,25,27,27,35,35,36,36],"right_children":[2,4,6,8,10,12,14,16,18,-1,-1,20,22,24,-1,-1,-1,26,28,-1,30,32,34,-1,36,38,-1,40,-1,-1,-1,-1,-1,-1,-1,42,44,-1,-1,-1,-1,-1,-1,-1,-1],"split_conditions":[6.9977617E0,8.868808E0,5.947252E1,1.0153712E0,1.8606882E1,1.2895318E1,1.0020759E1,1.011721E3,3.584318E0,-5.5987943E-2,6.689139E-2,9.6811455E1,3.495695E1,1.0153712E0,-5.525289E-2,4.4943344E-2,-3.0981643E-2,3.4353298E3,4.428738E0,5.1598437E-2,6.1982883E1,4.0629425E0,2.6567122E1,-5.887692E-2,7.2644815E0,2.4351058E0,-6.8483435E-2,3.8750343E0,-6.1277922E-2,-5.128504E-2,3.371678E-2,7.561906E-2,-5.654472E-2,1.2586695E-1,3.8335636E-2,2.4599129E1,1.6649824E1,7.927287E-3,-6.259699E-2,-4.6938658E-2,8.230888E-2,1.00464165E-1,-3.209327E-2,-3.0709973E-2,3.0313313E-2],"split_indices":[9,21,31,33,7,7,8,22,14,0,0,11,3,33,0,0,0,5,20,0,1,20,30,0,9,21,0,20,0,0,0,0,0,0,0,24,30,0,0,0,0,0,0,0,0],"split_type":[0,0,0,0,0,0,0,0,0,0,0,0,0,0,0,0,0,0,0,0,0,0,0,0,0,0,0,0,0,0,0,0,0,0,0,0,0,0,0,0,0,0,0,0,0],"sum_hessian":[2.1724748E2,1.05365265E2,1.1188222E2,9.671873E1,8.646537E0,5.0804157E1,6.1078064E1,6.31687E0,9.0401855E1,4.0594187E0,4.5871177E0,1.7275267E1,3.352889E1,5.113426E1,9.943804E0,3.0139525E0,3.3029175E0,5.8320896E1,3.2080963E1,6.007133E0,1.1268133E1,9.666256E0,2.3862635E1,4.9659863E0,4.6168274E1,1.2266257E1,4.6054638E1,1.3710506E1,1.8370455E1,7.8354774E0,3.4326558E0,5.5624843E0,4.1037717E0,1.7893902E1,5.968733E0,1.198874E1,3.417953E1,3.7166438E0,8.549614E0,1.0347615E1,3.3628914E0,8.63555E0,3.3531907E0,1.2994604E1,2.1184927E1],"tree_param":{"num_deleted":"0","num_feature":"36","num_nodes":"45","size_leaf_vector":"1"}},{"base_weights":[3.5538873E-1,5.175489E-1,1.3500367E-1,5.7224286E-1,-3.0403227E-1,4.1347593E-2,5.1476216E-1,6.113694E-1,-5.132202E-2,1.6618347E-2,-7.215283E-2,2.6806083E-1,-1.545754E-1,7.528977E-1,-3.4425642E-2,4.8302057E-1,8.5854065E-1,-5.2858084E-2,3.7570998E-1,-4.044904E-1,5.952118E-2,2.9162979E-2,9.9785194E-2,6.515759E-1,1.752161E-1,9.387349E-1,4.3081158E-1,4.7368118E-1,-4.609851E-2,-5.909164E-1,1.0484568E-2,2.1584341E-1,-6.918501E-2,-2.4963744E-2,7.128368E-2,3.0384923E-3,9.1658354E-2,1.0071436E-1,4.6106976E-2,-1.1600524E-2,8.902553E-2,-3.2023806E-4,6.1719477E-2,-1.4842161E-3,-7.3939644E-2,5.3019013E-2,-2.2580007E-2],"categories":[],"categories_nodes":[],"categories_segments":[],"categories_sizes":[],"default_left":[0,0,0,0,0,0,0,0,0,0,0,0,0,0,0,0,0,0,0,0,0,0,0,0,0,0,0,0,0,0,0,0,0,0,0,0,0,0,0,0,0,0,0,0,0,0,0],"id":4,"left_children":[1,3,5,7,9,11,13,15,-1,-1,-1,17,19,21,-1,23,25,-1,27,29,31,-1,-1,33,35,37,39,41,-1,43,-1,45,-1,-1,-1,-1,-1,-1,-1,-1,-1,-1,-1,-1,-1,-1,-1],"loss_changes":[9.122051E0,6.816513E0,3.904631E0,6.2147713E0,2.0594132E0,4.022748E0,4.7083488E0,3.8543053E0,0E0,0E0,0E0,3.7932897E0,2.6306355E0,1.6685343E0,0E0,4.599798E0,1.129097E0,0E0,3.293252E0,2.2084448E0,3.3335214E0,0E0,0E0,3.3989468E0,3.5710256E0,7.381401E-1,2.3409486E0,2.333891E0,0E0,1.4174099E0,0E0,3.340976E0,0E0,0E0,0E0,0E0,0E0,0E0,0E0,0E0,0E0,0E0,0E0,0E0,0E0,0E0,0E0],"parents":[2147483647,0,0,1,1,2,2,3,3,4,4,5,5,6,6,7,7,11,11,12,12,13,13,15,15,16,16,18,18,19,19,20,20,23,23,24,24,25,25,26,26,27,27,29,29,31,31],"right_children":[2,4,6,8,10,12,14,16,-1,-1,-1,18,20,22,-1,24,26,-1,28,30,32,-1,-1,34,36,38,40,42,-1,44,-1,46,-1,-1,-1,-1,-1,-1,-1,-1,-1,-1,-1,-1,-1,-1,-1],"split_conditions":[7.2039437E0,1.1312524E1,7.841561E1,5.003641E1,9.76849E1,4.9272823E0,9.77344E1,1.01982324E3,-5.132202E-2,1.6618347E-2,-7.215283E-2,7.305151E0,7.7153125E0,5.2028843E3,-3.4425642E-2,6.9932556E1,9.855135E1,-5.2858084E-2,8.994655E0,4.862454E0,6.824448E1,2.9162979E-2,9.9785194E-2,2.2931768E1,9.916895E1,7.0310636E0,5.671082E0,6.678531E1,-4.609851E-2,8.2989365E-1,1.0484568E-2,5.996834E1,-6.918501E-2,-2.4963744E-2,7.128368E-2,3.0384923E-3,9.1658354E-2,1.0071436E-1,4.6106976E-2,-1.1600524E-2,8.902553E-2,-3.2023806E-4,6.1719477E-2,-1.4842161E-3,-7.3939644E-2,5.3019013E-2,-2.2580007E-2],"split_indices":[9,15,25,7,11,23,11,28,0,0,0,9,29,5,0,13,11,0,21,26,4,0,0,25,11,9,23,0,0,26,0,1,0,0,0,0,0,0,0,0,0,0,0,0,0,0,0],"split_type":[0,0,0,0,0,0,0,0,0,0,0,0,0,0,0,0,0,0,0,0,0,0,0,0,0,0,0,0,0,0,0,0,0,0,0,0,0,0,0,0,0,0,0,0,0,0,0],"sum_hessian":[2.5620544E2,1.4682365E2,1.0938178E2,1.3794398E2,8.879657E0,8.863219E1,2.0749598E1,1.3356624E2,4.3777533E0,4.4592557E0,4.4204006E0,4.0916855E1,4.7715332E1,1.6342655E1,4.406942E0,8.98592E1,4.3707043E1,4.405366E0,3.6511486E1,2.1605701E1,2.610963E1,6.4282703E0,9.914385E0,5.734172E1,3.2517475E1,3.580022E1,7.906821E0,3.307276E1,3.438725E0,1.5699307E1,5.9063935E0,2.220304E1,3.9065917E0,3.454044E0,5.388768E1,2.807401E1,4.443464E0,3.0345785E1,5.4544344E0,3.9514394E0,3.9553816E0,7.876733E0,2.519603E1,3.4426086E0,1.22567E1,1.2853713E1,9.349326E0],"tree_param":{"num_deleted":"0","num_feature":"36","num_nodes":"47","size_leaf_vector":"1"}},{"base_weights":[-3.4052923E-1,2.2670996E-1,-4.750266E-1,-1.985171E-1,7.3820066E-1,5.5366033E-3,-5.337579E-1,6.499929E-2,-3.7844837E-1,1.1993426E0,1.6286612E-1,7.525953E-2,-3.2825974E-1,-6.1987686E-1,-3.5391247E-1,9.135514E-3,-5.5747297E-2,6.0714956E-2,1.4111648E-1,-2.0676374E-2,5.9525747E-2,2.1543799E-2,-5.9834775E-2,-6.387976E-1,-2.0170325E-2,1.5820099E-2,-5.5351293E-1,-6.5954514E-2,-4.2302892E-1,4.7663695E-1,-5.9303798E-2,1.4101504E-2,-6.437918E-2,-4.750265E-4,-5.840534E-2,9.404525E-2,-1.8280376E-2],"categories":[],"categories_nodes":[],"categories_segments":[],"categories_sizes":[],"default_left":[0,0,0,0,0,0,0,0,0,0,0,0,0,0,0,0,0,0,0,0,0,0,0,0,0,0,0,0,0,0,0,0,0,0,0,0,0],"id":5,"left_children":[1,3,5,7,9,11,13,-1,15,17,19,-1,21,23,25,-1,-1,-1,-1,-1,-1,-1,-1,27,-1,29,31,-1,33,35,-1,-1,-1,-1,-1,-1,-1],"loss_changes":[1.5360029E1,8.627799E0,4.573166E0,3.6171348E0,4.557332E0,4.8912516E0,2.0155754E0,0E0,1.6363018E0,3.708229E-1,1.5818169E0,0E0,2.1214309E0,6.326637E-1,3.6289816E0,0E0,0E0,0E0,0E0,0E0,0E0,0E0,0E0,1.3113785E-1,0E0,5.3807583E0,2.0900106E0,0E0,7.2635543E-1,3.5048509E0,0E0,0E0,0E0,0E0,0E0,0E0,0E0],"parents":[2147483647,0,0,1,1,2,2,3,3,4,4,5,5,6,6,8,8,9,9,10,10,12,12,13,13,14,14,23,23,25,25,26,26,28,28,29,29],"right_children":[2,4,6,8,10,12,14,-1,16,18,20,-1,22,24,26,-1,-1,-1,-1,-1,-1,-1,-1,28,-1,30,32,-1,34,36,-1,-1,-1,-1,-1,-1,-1],"split_conditions":[5.973109E1,6.781053E1,5.8169146E0,1.0023257E3,6.67538E0,1.4931833E1,6.7695816E1,6.499929E-2,9.0221405E0,5.612775E1,8.083792E0,7.525953E-2,1.9996912E0,1.0706311E1,6.822832E0,9.135514E-3,-5.5747297E-2,6.0714956E-2,1.4111648E-1,-2.0676374E-2,5.9525747E-2,2.1543799E-2,-5.9834775E-2,3.223962E1,-2.0170325E-2,1.01629535E3,1.00066376E3,-6.5954514E-2,4.5139184E0,5.8957477E0,-5.9303798E-2,1.4101504E-2,-6.437918E-2,-4.750265E-4,-5.840534E-2,9.404525E-2,-1.8280376E-2],"split_indices":[10,19,9,16,9,7,31,0,7,4,8,0,27,23,9,0,0,0,0,0,0,0,0,18,0,16,16,0,29,17,0,0,0,0,0,0,0],"split_type":[0,0,0,0,0,0,0,0,0,0,0,0,0,0,0,0,0,0,0,0,0,0,0,0,0,0,0,0,0,0,0,0,0,0,0,0,0],"sum_hessian":[1.9892003E2,3.7994328E1,1.609257E2,2.1080757E1,1.691357E1,1.7624088E1,1.4330162E2,3.2311282E0,1.7849628E1,8.786455E0,8.127116E0,5.05531E0,1.2568779E1,9.524626E1,4.8055355E1,5.0601873E0,1.278944E1,3.3334424E0,5.4530125E0,4.662872E0,3.4642441E0,4.2386174E0,8.330161E0,9.061854E1,4.627723E0,1.7170357E1,3.0885E1,8.079305E1,9.825482E0,9.896961E0,7.2733955E0,3.4881506E0,2.7396849E1,3.0172768E0,6.8082056E0,5.560127E0,4.3368344E0],"tree_param":{"num_deleted":"0","num_feature":"36","num_nodes":"37","size_leaf_vector":"1"}},{"base_weights":[-5.361028E-2,-4.4302762E-1,2.864014E-1,3.136014E-2,-5.0055796E-1,-1.3470793E-1,6.804371E-1,-5.7441335E-2,4.8411435E-1,-5.645533E-1,-2.2220188E-1,-5.686642E-1,1.2413171E-1,9.751181E-1,2.466126E-1,9.298856E-2,-5.794283E-3,-5.4363557E-3,-5.8758354E-1,-6.0644668E-2,1.0103614E-1,-7.725026E-3,-6.551208E-2,-4.7538108E-1,3.957306E-1,5.317672E-3,1.0856729E0,6.446745E-1,-1.4704862E-1,-7.0533524E-3,-6.123507E-1,-3.797383E-2,4.9006213E-2,-5.4660602E-3,-6.1612256E-2,-5.765633E-2,6.1543536E-1,1.2496048E-1,4.5938402E-1,-1.120665E-2,9.329329E-1,-5.926569E-2,2.132972E-1,-6.403714E-2,-9.806945E-3,8.172204E-2,-3.3556115E-2,-1.7154342E-2,1.08265355E-1,1.21867456E-1,3.3815183E-2,7.0146926E-2,-2.012596E-2],"categories":[],"categories_nodes":[],"categories_segments":[],"categories_sizes":[],"default_left":[0,0,0,0,0,0,0,0,0,0,0,0,0,0,0,0,0,0,0,0,0,0,0,0,0,0,0,0,0,0,0,0,0,0,0,0,0,0,0,0,0,0,0,0,0,0,0,0,0,0,0,0,0],"id":6,"left_children":[1,3,5,7,9,11,13,-1,15,17,19,21,23,25,27,-1,-1,-1,29,-1,31,-1,-1,33,35,-1,37,39,41,-1,43,-1,-1,-1,-1,-1,45,-1,47,-1,49,-1,51,-1,-1,-1,-1,-1,-1,-1,-1,-1,-1],"loss_changes":[2.8388468E1,2.7417812E0,1.9100634E1,3.4991918E0,1.4624939E0,6.3845716E0,7.346449E0,0E0,1.8090477E0,8.1204605E-1,2.335713E0,8.492775E-1,6.0549307E0,3.5099068E0,4.0663133E0,0E0,0E0,0E0,8.356228E-1,0E0,2.2066033E0,0E0,0E0,6.58411E-1,5.7684994E0,0E0,2.629547E0,2.893982E0,2.3032904E0,0E0,8.790474E-1,0E0,0E0,0E0,0E0,0E0,4.3338776E0,0E0,3.3530436E0,0E0,1.179924E0,0E0,1.8069087E0,0E0,0E0,0E0,0E0,0E0,0E0,0E0,0E0,0E0,0E0],"parents":[2147483647,0,0,1,1,2,2,3,3,4,4,5,5,6,6,8,8,9,9,10,10,11,11,12,12,13,13,14,14,18,18,20,20,23,23,24,24,26,26,27,27,28,28,30,30,36,36,38,38,40,40,42,42],"right_children":[2,4,6,8,10,12,14,-1,16,18,20,22,24,26,28,-1,-1,-1,30,-1,32,-1,-1,34,36,-1,38,40,42,-1,44,-1,-1,-1,-1,-1,46,-1,48,-1,50,-1,52,-1,-1,-1,-1,-1,-1,-1,-1,-1,-1],"split_conditions":[6.9977617E0,1.358429E0,6.939903E1,4.6723057E1,7.6809444E0,1.5258756E1,6.40626E1,-5.7441335E-2,1.01334344E3,1.6319458E3,7.003511E1,5.889352E0,3.9586094E1,1.4644547E0,2.0574984E1,9.298856E-2,-5.794283E-3,-5.4363557E-3,1.0065148E2,-6.0644668E-2,6.3701862E1,-7.725026E-3,-6.551208E-2,7.3247814E0,1.8225493E0,5.317672E-3,6.705979E1,2.9907733E2,7.416873E0,-7.0533524E-3,1.5677043E2,-3.797383E-2,4.9006213E-2,-5.4660602E-3,-6.1612256E-2,-5.765633E-2,9.770513E0,1.2496048E-1,6.756581E0,-1.120665E-2,7.9825874E1,-5.926569E-2,6.193498E1,-6.403714E-2,-9.806945E-3,8.172204E-2,-3.3556115E-2,-1.7154342E-2,1.08265355E-1,1.21867456E-1,3.3815183E-2,7.0146926E-2,-2.012596E-2],"split_indices":[9,33,10,3,33,7,13,0,16,5,10,8,3,7,18,0,0,0,2,0,4,0,0,9,33,0,4,6,9,0,2,0,0,0,0,0,8,0,17,0,25,0,4,0,0,0,0,0,0,0,0,0,0],"split_type":[0,0,0,0,0,0,0,0,0,0,0,0,0,0,0,0,0,0,0,0,0,0,0,0,0,0,0,0,0,0,0,0,0,0,0,0,0,0,0,0,0,0,0,0,0,0,0,0,0,0,0,0,0],"sum_hessian":[2.124457E2,9.888693E1,1.1355876E2,1.0744452E1,8.814248E1,5.521169E1,5.8347073E1,4.4806924E0,6.2637606E0,7.083013E1,1.7312347E1,2.0180761E1,3.5030926E1,3.4002617E1,2.4344454E1,3.044545E0,3.2192154E0,3.2043571E0,6.762578E1,7.509441E0,9.802906E0,3.3025851E0,1.6878176E1,1.0688157E1,2.434277E1,3.7994158E0,3.0203201E1,1.1787522E1,1.25569315E1,3.2671535E0,6.435862E1,4.3951154E0,5.407791E0,3.02722E0,7.6609373E0,4.1873903E0,2.015538E1,2.3148733E1,7.054468E0,3.4201403E0,8.367382E0,5.326019E0,7.230913E0,6.0800716E1,3.5579042E0,1.6743391E1,3.4119885E0,3.865869E0,3.188599E0,4.943504E0,3.4238784E0,3.0027971E0,4.228116E0],"tree_param":{"num_deleted":"0","num_feature":"36","num_nodes":"53","size_leaf_vector":"1"}},{"base_weights":[3.4269822E-1,2.6202098E-1,6.6167235E-1,7.339104E-1,2.22459E-1,7.794475E-1,1.288078E-1,8.855189E-2,1.6426874E-2,3.6746743E-1,7.863869E-2,1.2954314E-2,8.546065E-1,6.059745E-2,-1.98976E-2,5.889324E-1,-1.0887851E-2,3.9179426E-1,-2.170083E-1,3.3083905E-2,9.163326E-1,-2.3168188E-2,6.967658E-1,1.2259989E-1,-7.1554326E-2,8.4655654E-1,2.1554045E-1,-4.6240535E-1,1.7237206E-1,9.720159E-2,3.5254817E-2,-4.2251643E-2,4.586001E-2,9.0050064E-2,4.296027E-2,-4.247224E-2,3.1064255E-2,3.9925113E-2,9.687262E-2,5.442655E-2,-1.0815526E-2,4.789677E-2,-6.1627995E-2,-6.7911902E-3,6.4139746E-2],"categories":[],"categories_nodes":[],"categories_segments":[],"categories_sizes":[],"default_left":[0,0,0,0,0,0,0,0,0,0,0,0,0,0,0,0,0,0,0,0,0,0,0,0,0,0,0,0,0,0,0,0,0,0,0,0,0,0,0,0,0,0,0,0,0],"id":7,"left_children":[1,3,5,7,9,11,13,-1,-1,15,17,-1,19,-1,-1,21,23,25,27,-1,29,31,33,35,-1,37,39,41,43,-1,-1,-1,-1,-1,-1,-1,-1,-1,-1,-1,-1,-1,-1,-1,-1],"loss_changes":[6.381567E0,3.6630163E0,3.0854816E0,1.186142E0,3.944768E0,1.9104156E0,1.7451866E0,0E0,0E0,7.9335117E0,9.059355E0,0E0,8.90131E-1,0E0,0E0,3.9561443E0,3.465658E0,3.6191196E0,4.9054604E0,0E0,6.76136E-1,2.1001353E0,2.3773289E0,3.327157E0,0E0,3.1851578E-1,3.8387208E0,4.8220005E0,2.326E0,0E0,0E0,0E0,0E0,0E0,0E0,0E0,0E0,0E0,0E0,0E0,0E0,0E0,0E0,0E0,0E0],"parents":[2147483647,0,0,1,1,2,2,3,3,4,4,5,5,6,6,9,9,10,10,12,12,15,15,16,16,17,17,18,18,20,20,21,21,22,22,23,23,25,25,26,26,27,27,28,28],"right_children":[2,4,6,8,10,12,14,-1,-1,16,18,-1,20,-1,-1,22,24,26,28,-1,30,32,34,36,-1,38,40,42,44,-1,-1,-1,-1,-1,-1,-1,-1,-1,-1,-1,-1,-1,-1,-1,-1],"split_conditions":[1.02276447E3,2.7924301E1,9.855135E1,1.0193567E3,6.979079E0,6.137451E1,4.3197083E1,8.855189E-2,1.6426874E-2,6.9932556E1,6.939903E1,1.2954314E-2,3.5204964E1,6.059745E-2,-1.98976E-2,3.3930164E1,9.955695E0,5.7905647E1,6.40626E1,3.3083905E-2,8.3520935E1,6.509388E0,6.906502E0,3.85762E1,-7.1554326E-2,2.3562443E0,7.1498566E1,7.160133E-1,8.537624E0,9.720159E-2,3.5254817E-2,-4.2251643E-2,4.586001E-2,9.0050064E-2,4.296027E-2,-4.247224E-2,3.1064255E-2,3.9925113E-2,9.687262E-2,5.442655E-2,-1.0815526E-2,4.789677E-2,-6.1627995E-2,-6.7911902E-3,6.4139746E-2],"split_indices":[28,3,11,28,9,0,3,0,0,13,10,0,25,0,0,25,8,4,13,0,0,9,35,3,0,35,0,7,8,0,0,0,0,0,0,0,0,0,0,0,0,0,0,0,0],"split_type":[0,0,0,0,0,0,0,0,0,0,0,0,0,0,0,0,0,0,0,0,0,0,0,0,0,0,0,0,0,0,0,0,0,0,0,0,0,0,0,0,0,0,0,0,0],"sum_hessian":[2.5371947E2,2.0395511E2,4.976436E1,1.4418802E1,1.895363E2,4.037731E1,9.387047E0,1.0949979E1,3.4688241E0,9.3604E1,9.593231E1,4.4677773E0,3.5909534E1,3.476899E0,5.910148E0,5.8692566E1,3.4911434E1,4.6428764E1,4.9503544E1,4.456276E0,3.1453259E1,8.908709E0,4.9783855E1,3.0045687E1,4.8657475E0,1.1906106E1,3.4522655E1,3.0251049E1,1.9252497E1,2.7966955E1,3.4863033E0,4.9382634E0,3.9704454E0,2.6899826E1,2.288403E1,7.3612304E0,2.2684456E1,3.4698365E0,8.43627E0,1.6790186E1,1.7732471E1,3.953239E0,2.629781E1,1.3296064E1,5.956432E0],"tree_param":{"num_deleted":"0","num_feature":"36","num_nodes":"45","size_leaf_vector":"1"}},{"base_weights":[-3.2061726E-1,2.5611943E-1,-4.526313E-1,6.785331E-1,-1.3528512E-1,-5.3438044E-1,-1.1786528E-1,-9.959876E-4,1.0243986E0,-3.380769E-1,2.9948E-2,-5.618938E-1,1.9625125E-2,-4.6635526E-1,3.5653365E-1,3.671806E-2,1.3455157E-1,2.1488305E-2,-6.0191214E-2,1.1737596E-2,-5.841792E-1,2.4318174E-2,-6.1605632E-2,9.443953E-2,-1.3175392E-1,-6.304011E-1,-1.810199E-1,-5.398005E-2,4.2943146E-2,-6.389105E-2,-2.8815547E-2,5.217257E-2,-4.9496356E-2],"categories":[],"categories_nodes":[],"categories_segments":[],"categories_sizes":[],"default_left":[0,0,0,0,0,0,0,0,0,0,0,0,0,0,0,0,0,0,0,0,0,0,0,0,0,0,0,0,0,0,0,0,0],"id":8,"left_children":[1,3,5,7,9,11,13,-1,15,17,-1,19,-1,21,23,-1,-1,-1,-1,-1,25,-1,-1,-1,27,29,31,-1,-1,-1,-1,-1,-1],"loss_changes":[1.47576275E1,6.1196E0,4.229454E0,4.225213E0,1.8431988E0,2.6387367E0,5.46777E0,0E0,1.9945107E0,2.1634617E0,0E0,1.9074326E0,0E0,2.1594987E0,4.1853094E0,0E0,0E0,0E0,0E0,0E0,2.0807571E0,0E0,0E0,0E0,2.202415E0,1.2246323E-1,3.2405336E0,0E0,0E0,0E0,0E0,0E0,0E0],"parents":[2147483647,0,0,1,1,2,2,3,3,4,4,5,5,6,6,8,8,9,9,11,11,13,13,14,14,20,20,24,24,25,25,26,26],"right_children":[2,4,6,8,10,12,14,-1,16,18,-1,20,-1,22,24,-1,-1,-1,-1,-1,26,-1,-1,-1,28,30,32,-1,-1,-1,-1,-1,-1],"split_conditions":[5.973109E1,6.67538E0,2.9109266E1,5.8586243E1,7.760248E1,1.613002E2,8.585658E0,-9.959876E-4,5.957485E3,3.3070912E0,2.9948E-2,-3.1767735E-1,1.9625125E-2,5.7687697E0,1.618286E1,3.671806E-2,1.3455157E-1,2.1488305E-2,-6.0191214E-2,1.1737596E-2,8.885908E1,2.4318174E-2,-6.1605632E-2,9.443953E-2,7.225614E1,4.8339184E1,6.484019E0,-5.398005E-2,4.2943146E-2,-6.389105E-2,-2.8815547E-2,5.217257E-2,-4.9496356E-2],"split_indices":[10,9,12,31,0,2,8,0,5,15,0,24,0,7,7,0,0,0,0,0,13,0,0,0,13,7,9,0,0,0,0,0,0],"split_type":[0,0,0,0,0,0,0,0,0,0,0,0,0,0,0,0,0,0,0,0,0,0,0,0,0,0,0,0,0,0,0,0,0],"sum_hessian":[1.9130646E2,3.5458214E1,1.5584825E2,1.6700754E1,1.875746E1,1.2478078E2,3.1067469E1,5.9090934E0,1.0791661E1,1.2942809E1,5.81465E0,1.20475E2,4.3057766E0,1.7920301E1,1.3147168E1,4.245667E0,6.5459943E0,4.240624E0,8.702185E0,3.6914322E0,1.1678357E2,3.0133758E0,1.4906926E1,5.5415096E0,7.605658E0,1.0426592E2,1.2517651E1,4.4257407E0,3.1799176E0,1.0089059E2,3.3753319E0,3.6609561E0,8.856694E0],"tree_param":{"num_deleted":"0","num_feature":"36","num_nodes":"33","size_leaf_vector":"1"}},{"base_weights":[-1.0844825E-1,-4.3762696E-1,1.8276745E-1,-5.468688E-1,-6.620148E-2,3.957464E-1,-1.0311355E-1,-2.9102077E-3,-5.7908887E-1,-2.6112044E-1,4.9814794E-2,-5.293796E-3,5.7209957E-1,-3.7681243E-1,1.537742E-1,-3.615424E-1,-6.2502044E-1,2.2422498E-1,-5.3046208E-2,3.343162E-1,-3.530619E-1,2.314002E-1,8.203203E-1,8.34099E-3,-5.0190926E-1,6.6480285E-1,-1.134742E-1,-5.3144015E-2,2.0359188E-2,-6.4066404E-1,-2.881899E-2,-3.6775027E-3,4.3541756E-2,-1.0302364E-1,1.04534976E-1,-5.868053E-2,6.2922523E-3,-4.219312E-3,9.1810666E-2,6.8084686E-3,9.396794E-1,-6.4286135E-2,-9.335632E-3,2.5108352E-2,9.237848E-2,-4.666888E-1,4.3313324E-1,-3.0693565E-2,-6.5763384E-2,3.5708245E-2,-5.4360032E-2,-4.707369E-2,3.1153074E-2,1.0325102E-1,4.139091E-2,-6.193318E-2,-6.8326737E-3,6.761186E-2,1.1213212E-2],"categories":[],"categories_nodes":[],"categories_segments":[],"categories_sizes":[],"default_left":[0,0,0,0,0,0,0,0,0,0,0,0,0,0,0,0,0,0,0,0,0,0,0,0,0,0,0,0,0,0,0,0,0,0,0,0,0,0,0,0,0,0,0,0,0,0,0,0,0,0,0,0,0,0,0,0,0,0,0],"id":9,"left_children":[1,3,5,7,9,11,13,-1,15,17,-1,19,21,23,25,27,29,31,-1,33,35,37,39,-1,41,43,45,-1,-1,47,-1,-1,-1,49,-1,-1,-1,51,-1,-1,53,-1,-1,-1,-1,55,57,-1,-1,-1,-1,-1,-1,-1,-1,-1,-1,-1,-1],"loss_changes":[2.0056368E1,3.9447212E0,6.8159437E0,1.2456169E0,2.7080727E0,4.5276175E0,3.453906E0,0E0,4.8537827E-1,2.4818368E0,0E0,2.5428126E0,3.5687532E0,1.4048676E0,3.5751274E0,1.5275514E0,1.17860794E-1,4.103434E-1,0E0,3.497436E0,1.0705006E0,3.2601955E0,2.2092876E0,0E0,1.0201492E0,7.2648716E-1,3.6156442E0,0E0,0E0,1.0420799E-1,0E0,0E0,0E0,1.7468178E0,0E0,0E0,0E0,2.5004852E0,0E0,0E0,6.3533974E-1,0E0,0E0,0E0,0E0,6.4002347E-1,5.059601E-1,0E0,0E0,0E0,0E0,0E0,0E0,0E0,0E0,0E0,0E0,0E0,0E0],"parents":[2147483647,0,0,1,1,2,2,3,3,4,4,5,5,6,6,8,8,9,9,11,11,12,12,13,13,14,14,15,15,16,16,17,17,19,19,20,20,21,21,22,22,24,24,25,25,26,26,29,29,33,33,37,37,40,40,45,45,46,46],"right_children":[2,4,6,8,10,12,14,-1,16,18,-1,20,22,24,26,28,30,32,-1,34,36,38,40,-1,42,44,46,-1,-1,48,-1,-1,-1,50,-1,-1,-1,52,-1,-1,54,-1,-1,-1,-1,56,58,-1,-1,-1,-1,-1,-1,-1,-1,-1,-1,-1,-1],"split_conditions":[6.9977617E0,9.8701965E1,6.5510025E1,7.7411133E-1,3.8938375E0,1.10054E1,3.753402E0,-2.9102077E-3,9.4883705E1,4.0663604E3,4.9814794E-2,3.8732865E0,4.1848087E1,9.533522E1,2.8609207E0,9.473802E1,8.152575E0,6.5496316E0,-5.3046208E-2,2.7327201E0,8.039991E0,1.0197748E3,3.0875635E1,8.34099E-3,9.8207466E1,4.0092545E0,8.288074E0,-5.3144015E-2,2.0359188E-2,4.463738E0,-2.881899E-2,-3.6775027E-3,4.3541756E-2,1.27527306E2,1.04534976E-1,-5.868053E-2,6.2922523E-3,7.44832E0,9.1810666E-2,6.8084686E-3,1.0177351E3,-6.4286135E-2,-9.335632E-3,2.5108352E-2,9.237848E-2,1.3716269E2,1.7802536E0,-3.0693565E-2,-6.5763384E-2,3.5708245E-2,-5.4360032E-2,-4.707369E-2,3.1153074E-2,1.0325102E-1,4.139091E-2,-6.193318E-2,-6.8326737E-3,6.761186E-2,1.1213212E-2],"split_indices":[9,11,25,27,14,7,33,0,11,5,0,33,3,11,23,11,32,9,0,33,8,16,19,0,11,15,23,0,0,8,0,0,0,2,0,0,0,8,0,0,22,0,0,0,0,2,14,0,0,0,0,0,0,0,0,0,0,0,0],"split_type":[0,0,0,0,0,0,0,0,0,0,0,0,0,0,0,0,0,0,0,0,0,0,0,0,0,0,0,0,0,0,0,0,0,0,0,0,0,0,0,0,0,0,0,0,0,0,0,0,0,0,0,0,0,0,0,0,0,0,0],"sum_hessian":[2.0738686E2,9.711225E1,1.10274605E2,7.467643E1,2.243582E1,6.2974686E1,4.7299923E1,4.486294E0,7.019014E1,1.7075478E1,5.360341E0,1.9530607E1,4.3444077E1,2.2674612E1,2.4625309E1,1.3782625E1,5.6407516E1,6.153881E0,1.09215975E1,9.900773E0,9.629834E0,1.912542E1,2.4318659E1,4.917333E0,1.7757278E1,7.94514E0,1.668017E1,1.0642703E1,3.1399217E0,5.3042023E1,3.3654933E0,3.121759E0,3.032122E0,6.659673E0,3.2410994E0,5.9025335E0,3.7273002E0,1.4979558E1,4.145861E0,3.5453353E0,2.0773323E1,1.2776008E1,4.981271E0,3.8170185E0,4.128122E0,1.022138E1,6.4587893E0,3.49023E0,4.9551792E1,3.350337E0,3.3093362E0,5.8481383E0,9.13142E0,1.683679E1,3.9365337E0,6.9887576E0,3.2326229E0,3.0464585E0,3.412331E0],"tree_param":{"num_deleted":"0","num_feature":"36","num_nodes":"59","size_leaf_vector":"1"}},{"base_weights":[2.691292E-1,4.1712636E-1,1.2175096E-1,4.5337045E-1,-5.1026326E-2,-1.2517752E-2,4.359445E-1,-2.6836738E-2,4.9458563E-1,-1.24944456E-1,3.061911E-1,5.88756E-1,-5.3950753E-2,5.419475E-1,-1.5223886E-1,6.404354E-2,-1.8728477E-1,-3.2512207E-2,4.4136393E-1,-5.6991796E-3,6.7425823E-1,-5.3001404E-2,3.869563E-2,4.209883E-1,7.224949E-1,-5.1547743E-2,2.380639E-2,3.384769E-2,-3.6306548E-1,-9.183158E-3,6.122357E-1,7.699495E-1,1.5729148E-2,5.5790223E-2,1.3730833E-2,7.9251066E-2,-6.5399418E-3,4.556374E-2,-1.5221807E-2,1.5190326E-2,-4.7742657E-2,1.9526357E-2,8.4155165E-2,8.788477E-2,1.369603E-2],"categories":[],"categories_nodes":[],"categories_segments":[],"categories_sizes":[],"default_left":[0,0,0,0,0,0,0,0,0,0,0,0,0,0,0,0,0,0,0,0,0,0,0,0,0,0,0,0,0,0,0,0,0,0,0,0,0,0,0,0,0,0,0,0,0],"id":10,"left_children":[1,3,5,7,-1,9,11,-1,13,15,17,19,21,23,25,-1,27,-1,29,-1,31,-1,-1,33,35,-1,-1,37,39,-1,41,43,-1,-1,-1,-1,-1,-1,-1,-1,-1,-1,-1,-1,-1],"loss_changes":[5.645506E0,4.5973797E0,5.5852547E0,3.8670464E0,0E0,3.3934188E0,2.9983745E0,0E0,3.7313519E0,3.4565833E0,2.2519507E0,1.7108164E0,2.3750534E0,2.12434E0,1.3854886E0,0E0,2.555874E0,0E0,1.9489427E0,0E0,1.2059603E0,0E0,0E0,2.602766E0,2.4358158E0,0E0,0E0,2.4155123E0,2.2245784E0,0E0,1.3524771E0,1.4222746E0,0E0,0E0,0E0,0E0,0E0,0E0,0E0,0E0,0E0,0E0,0E0,0E0,0E0],"parents":[2147483647,0,0,1,1,2,2,3,3,5,5,6,6,8,8,9,9,10,10,11,11,12,12,13,13,14,14,16,16,18,18,20,20,23,23,24,24,27,27,28,28,30,30,31,31],"right_children":[2,4,6,8,-1,10,12,-1,14,16,18,20,22,24,26,-1,28,-1,30,-1,32,-1,-1,34,36,-1,-1,38,40,-1,42,44,-1,-1,-1,-1,-1,-1,-1,-1,-1,-1,-1,-1,-1],"split_conditions":[6.9977617E0,5.003641E1,7.263457E1,9.969071E2,-5.1026326E-2,1.01889465E3,9.77344E1,-2.6836738E-2,1.1312524E1,2.7398579E1,4.9394417E0,8.0981045E0,1.0128152E3,1.0178895E3,1.4068798E0,6.404354E-2,1.0074909E3,-3.2512207E-2,2.2449454E2,-5.6991796E-3,9.9690674E1,-5.3001404E-2,3.869563E-2,2.6019676E1,4.2395046E1,-5.1547743E-2,2.380639E-2,6.6323023E0,1.6294942E0,-9.183158E-3,7.38768E0,1.0276709E3,1.5729148E-2,5.5790223E-2,1.3730833E-2,7.9251066E-2,-6.5399418E-3,4.556374E-2,-1.5221807E-2,1.5190326E-2,-4.7742657E-2,1.9526357E-2,8.4155165E-2,8.788477E-2,1.369603E-2],"split_indices":[9,7,31,22,0,22,11,0,15,3,8,7,22,16,14,0,22,0,6,0,19,0,0,18,7,0,0,8,21,0,9,28,0,0,0,0,0,0,0,0,0,0,0,0,0],"split_type":[0,0,0,0,0,0,0,0,0,0,0,0,0,0,0,0,0,0,0,0,0,0,0,0,0,0,0,0,0,0,0,0,0,0,0,0,0,0,0,0,0,0,0,0,0],"sum_hessian":[2.6015924E2,1.288938E2,1.3126544E2,1.2453777E2,4.3560333E0,9.263752E1,3.8627926E1,6.429877E0,1.18107895E2,6.892997E1,2.370755E1,2.9289837E1,9.338088E0,1.102009E2,7.9069996E0,4.49309E0,6.443688E1,3.9331026E0,1.9774446E1,3.4637349E0,2.5826101E1,4.3928595E0,4.945228E0,6.798532E1,4.2215572E1,3.9293783E0,3.977621E0,2.8894718E1,3.5542164E1,4.9113708E0,1.4863076E1,2.1379387E1,4.4467144E0,4.52024E1,2.2782925E1,3.8764896E1,3.450677E0,8.40125E0,2.0493467E1,6.399027E0,2.9143137E1,5.9306664E0,8.932409E0,1.7909811E1,3.4695764E0],"tree_param":{"num_deleted":"0","num_feature":"36","num_nodes":"45","size_leaf_vector":"1"}},{"base_weights":[-2.4951915E-1,3.012211E-1,-3.4523758E-1,-6.264434E-2,8.948188E-1,-3.7667025E-2,-4.5952785E-1,8.5947774E-2,-3.335849E-1,1.2655191E-1,3.3523854E-2,-2.7670807E-1,5.272276E-1,9.410572E-2,-5.250669E-1,1.8855296E-2,-5.065892E-2,-4.83414E-1,2.406036E-1,5.9604507E-5,9.729107E-2,6.0941964E-2,-3.1931373E-1,-6.5031457E-3,-5.485041E-1,-2.2434439E-3,-5.6060452E-2,6.73782E-2,-4.8439156E-2,-5.164063E-2,-1.126975E-3,-6.1018455E-1,-2.8742656E-1,-6.345215E-2,-3.3237666E-2,-6.029883E-2,1.2657168E-2],"categories":[],"categories_nodes":[],"categories_segments":[],"categories_sizes":[],"default_left":[0,0,0,0,0,0,0,0,0,0,0,0,0,0,0,0,0,0,0,0,0,0,0,0,0,0,0,0,0,0,0,0,0,0,0,0,0],"id":11,"left_children":[1,3,5,7,9,11,13,-1,15,-1,-1,17,19,21,23,-1,-1,25,27,-1,-1,-1,29,-1,31,-1,-1,-1,-1,-1,-1,33,35,-1,-1,-1,-1],"loss_changes":[9.494534E0,5.8682694E0,5.333748E0,4.688332E0,1.7106714E0,5.8618283E0,4.0731907E0,0E0,1.3906287E0,0E0,0E0,3.3669653E0,3.0343516E0,2.8759644E0,1.0350723E0,0E0,0E0,7.721319E-1,3.2617188E0,0E0,0E0,0E0,4.5801097E-1,0E0,1.3441334E0,0E0,0E0,0E0,0E0,0E0,0E0,2.9912758E-1,2.6791205E0,0E0,0E0,0E0,0E0],"parents":[2147483647,0,0,1,1,2,2,3,3,4,4,5,5,6,6,8,8,11,11,12,12,13,13,14,14,17,17,18,18,22,22,24,24,31,31,32,32],"right_children":[2,4,6,8,10,12,14,-1,16,-1,-1,18,20,22,24,-1,-1,26,28,-1,-1,-1,30,-1,32,-1,-1,-1,-1,-1,-1,34,36,-1,-1,-1,-1],"split_conditions":[5.9018135E0,6.862391E1,9.098388E0,9.480657E0,4.7172752E1,2.6178587E1,1.0003244E3,8.5947774E-2,1.6260336E1,1.2655191E-1,3.3523854E-2,6.870171E1,2.8427718E0,3.9586094E1,6.0190535E0,1.8855296E-2,-5.065892E-2,7.912001E0,1.01611005E3,5.9604507E-5,9.729107E-2,6.0941964E-2,3.176309E0,-6.5031457E-3,8.271959E1,-2.2434439E-3,-5.6060452E-2,6.73782E-2,-4.8439156E-2,-5.164063E-2,-1.126975E-3,1.517079E2,3.2603025E0,-6.345215E-2,-3.3237666E-2,-6.029883E-2,1.2657168E-2],"split_indices":[9,13,7,7,3,18,16,0,18,0,0,19,32,3,9,0,0,24,16,0,0,0,21,0,13,0,0,0,0,0,0,2,14,0,0,0,0],"split_type":[0,0,0,0,0,0,0,0,0,0,0,0,0,0,0,0,0,0,0,0,0,0,0,0,0,0,0,0,0,0,0,0,0,0,0,0,0],"sum_hessian":[1.7713454E2,2.5909681E1,1.5122485E2,1.6617748E1,9.291934E0,4.132995E1,1.09894905E2,3.280536E0,1.3337212E1,4.8304186E0,4.461516E0,2.9399433E1,1.1930516E1,1.1586173E1,9.830873E1,3.296945E0,1.0040267E1,2.1052757E1,8.346676E0,5.9276166E0,6.0028996E0,4.946467E0,6.6397057E0,4.9486785E0,9.3360054E1,3.2047448E0,1.7848013E1,5.269083E0,3.0775926E0,3.6365595E0,3.0031464E0,7.443691E1,1.8923143E1,6.726062E1,7.176289E0,1.0479136E1,8.444007E0],"tree_param":{"num_deleted":"0","num_feature":"36","num_nodes":"37","size_leaf_vector":"1"}},{"base_weights":[-9.426664E-2,-4.4856253E-1,2.043309E-1,-4.8842734E-1,1.5414226E-2,3.0686405E-1,-4.630571E-1,4.292296E-3,-5.2236426E-1,1.1534302E-2,4.799607E-1,-6.0153888E-3,-6.264675E-2,8.456885E-3,-5.524201E-1,-5.404615E-2,2.3047706E-1,7.2077376E-1,2.1853855E-2,-6.439411E-2,-3.9342794E-1,3.6556914E-1,-5.3323697E-2,7.964302E-1,9.0970844E-4,-5.171735E-2,4.0589127E-1,-6.2200762E-2,-1.2845418E-2,5.100746E-2,-3.4361694E-2,1.884166E-3,8.873728E-2,-1.0766855E-2,9.179057E-2],"categories":[],"categories_nodes":[],"categories_segments":[],"categories_sizes":[],"default_left":[0,0,0,0,0,0,0,0,0,0,0,0,0,0,0,0,0,0,0,0,0,0,0,0,0,0,0,0,0,0,0,0,0,0,0],"id":12,"left_children":[1,3,5,7,-1,9,11,-1,13,15,17,-1,-1,-1,19,-1,21,23,25,-1,27,29,-1,31,-1,-1,33,-1,-1,-1,-1,-1,-1,-1,-1],"loss_changes":[2.1893887E1,2.3473835E0,7.8418145E0,1.626194E0,0E0,5.011303E0,9.751327E-1,0E0,1.5731068E0,4.631157E0,6.8072243E0,0E0,0E0,0E0,9.0870285E-1,0E0,3.0218637E0,2.1737766E0,4.83467E0,0E0,1.842875E0,2.6220303E0,0E0,2.5717087E0,0E0,0E0,3.676645E0,0E0,0E0,0E0,0E0,0E0,0E0,0E0,0E0],"parents":[2147483647,0,0,1,1,2,2,3,3,5,5,6,6,8,8,9,9,10,10,14,14,16,16,17,17,18,18,20,20,21,21,23,23,26,26],"right_children":[2,4,6,8,-1,10,12,-1,14,16,18,-1,-1,-1,20,-1,22,24,26,-1,28,30,-1,32,-1,-1,34,-1,-1,-1,-1,-1,-1,-1,-1],"split_conditions":[6.9977617E0,1.1312524E1,1.0020759E1,9.357277E-1,1.5414226E-2,1.5258756E1,1.74151E0,4.292296E-3,1.6319458E3,2.4747153E2,6.865817E1,-6.0153888E-3,-6.264675E-2,8.456885E-3,3.2895362E0,-5.404615E-2,1.0174866E1,5.655241E0,3.1528947E0,-6.439411E-2,6.1032188E3,6.283328E0,-5.3323697E-2,8.707114E-1,9.0970844E-4,-5.171735E-2,3.6443841E0,-6.2200762E-2,-1.2845418E-2,5.100746E-2,-3.4361694E-2,1.884166E-3,8.873728E-2,-1.0766855E-2,9.179057E-2],"split_indices":[9,15,8,33,0,7,32,0,5,6,25,0,0,0,14,0,17,20,27,0,5,15,0,33,0,0,26,0,0,0,0,0,0,0,0],"split_type":[0,0,0,0,0,0,0,0,0,0,0,0,0,0,0,0,0,0,0,0,0,0,0,0,0,0,0,0,0,0,0,0,0,0,0],"sum_hessian":[2.0508604E2,9.3565384E1,1.1152066E2,8.793846E1,5.6269197E0,9.713732E1,1.4383342E1,5.2634783E0,8.267499E1,3.628911E1,6.084821E1,4.5450993E0,9.838243E0,3.8153737E0,7.885961E1,9.888881E0,2.6400229E1,3.9507126E1,2.1341085E1,4.8113686E1,3.0745926E1,2.28752E1,3.5250287E0,3.560316E1,3.9039648E0,8.734641E0,1.2606444E1,1.5783155E1,1.4962771E1,1.9236322E1,3.6388779E0,3.854358E0,3.1748802E1,6.687987E0,5.9184575E0],"tree_param":{"num_deleted":"0","num_feature":"36","num_nodes":"35","size_leaf_vector":"1"}},{"base_weights":[2.6284507E-1,1.8235996E-1,4.4853956E-1,-4.918335E-2,2.1014391E-1,5.1951516E-1,4.5476407E-3,2.890427E-1,-2.4971966E-2,1.3574235E-3,6.063909E-1,3.848932E-1,-6.777788E-2,-3.2896957E-1,3.2959253E-1,-4.4009417E-1,1.6864437E-1,3.8589597E-2,-4.9923897E-2,3.8253206E-1,8.009692E-1,1.2642734E-2,5.5791914E-2,-6.963089E-2,1.4944944E-2,8.653287E-2,2.9633072E-1,-6.86768E-2,2.1577422E-3,4.221723E-1,-1.3025978E-1,6.6651034E-1,1.09577276E-1,3.487307E-2,8.494546E-2,1.4149685E-2,4.2788144E-2,6.433519E-2,-8.874618E-3,4.2775072E-2,-5.0047785E-2,8.3379395E-2,3.5404537E-2,7.2949E-2,-1.34848505E-2],"categories":[],"categories_nodes":[],"categories_segments":[],"categories_sizes":[],"default_left":[0,0,0,0,0,0,0,0,0,0,0,0,0,0,0,0,0,0,0,0,0,0,0,0,0,0,0,0,0,0,0,0,0,0,0,0,0,0,0,0,0,0,0,0,0],"id":13,"left_children":[1,3,5,-1,7,9,11,13,15,17,19,21,-1,23,25,27,29,-1,-1,31,33,-1,-1,-1,-1,-1,35,-1,-1,37,39,41,43,-1,-1,-1,-1,-1,-1,-1,-1,-1,-1,-1,-1],"loss_changes":[3.6519566E0,3.3995495E0,2.3564835E0,0E0,3.1552925E0,2.903944E0,3.200094E0,3.294695E0,3.575335E0,2.1691859E0,2.1006508E0,2.8320122E-1,0E0,1.5678463E0,1.8786259E0,1.6241829E0,2.3608613E0,0E0,0E0,2.0671868E0,3.319664E-1,0E0,0E0,0E0,0E0,0E0,2.2682228E0,0E0,0E0,1.9442272E0,3.2568073E0,4.0185022E-1,2.4129593E0,0E0,0E0,0E0,0E0,0E0,0E0,0E0,0E0,0E0,0E0,0E0,0E0],"parents":[2147483647,0,0,1,1,2,2,4,4,5,5,6,6,7,7,8,8,9,9,10,10,11,11,13,13,14,14,15,15,16,16,19,19,20,20,26,26,29,29,30,30,31,31,32,32],"right_children":[2,4,6,-1,8,10,12,14,16,18,20,22,-1,24,26,28,30,-1,-1,32,34,-1,-1,-1,-1,-1,36,-1,-1,38,40,42,44,-1,-1,-1,-1,-1,-1,-1,-1,-1,-1,-1,-1],"split_conditions":[1.01814777E3,5.9874046E1,7.4907002E0,-4.918335E-2,1.0135689E3,4.12509E1,8.113445E1,6.688614E-1,1.8524864E0,4.815115E0,3.3175788E0,5.463562E1,-6.777788E-2,1.0053939E3,1.0255331E0,1.01738837E3,1.3541994E2,3.8589597E-2,-4.9923897E-2,1.02319995E3,5.807295E1,1.2642734E-2,5.5791914E-2,-6.963089E-2,1.4944944E-2,8.653287E-2,5.9746902E1,-6.86768E-2,2.1577422E-3,7.0182594E1,1.6583435E1,2.2720554E0,8.668248E-1,3.487307E-2,8.494546E-2,1.4149685E-2,4.2788144E-2,6.433519E-2,-8.874618E-3,4.2775072E-2,-5.0047785E-2,8.3379395E-2,3.5404537E-2,7.2949E-2,-1.34848505E-2],"split_indices":[22,0,21,0,34,25,19,15,20,23,27,25,0,34,33,28,2,0,0,34,10,0,0,0,0,0,25,0,0,31,7,15,33,0,0,0,0,0,0,0,0,0,0,0,0],"split_type":[0,0,0,0,0,0,0,0,0,0,0,0,0,0,0,0,0,0,0,0,0,0,0,0,0,0,0,0,0,0,0,0,0,0,0,0,0,0,0,0,0,0,0,0,0],"sum_hessian":[2.4882228E2,1.7496828E2,7.385401E1,6.264103E0,1.6870418E2,6.3528397E1,1.0325614E1,1.2614411E2,4.2560062E1,9.26777E0,5.4260628E1,6.9098206E0,3.4157937E0,7.329154E0,1.1881496E2,1.313182E1,2.942824E1,5.3710594E0,3.89671E0,2.6611048E1,2.7649578E1,3.4647968E0,3.4450235E0,3.8882463E0,3.4409077E0,5.4832077E0,1.1333175E2,8.241024E0,4.8907957E0,1.5699586E1,1.3728655E1,1.2335518E1,1.4275531E1,3.4706082E0,2.417897E1,5.3012356E1,6.0319397E1,1.0775572E1,4.9240136E0,5.4136057E0,8.315049E0,6.947573E0,5.387945E0,3.475772E0,1.0799759E1],"tree_param":{"num_deleted":"0","num_feature":"36","num_nodes":"45","size_leaf_vector":"1"}},{"base_weights":[-2.618795E-1,1.8449903E-1,-3.8555366E-1,6.479781E-1,-2.5128427E-1,-4.759531E-1,-5.028299E-3,8.953318E-1,-6.312611E-3,8.9522965E-2,-4.533011E-1,-5.463362E-1,-7.215192E-2,9.666522E-2,-2.1676609E-1,4.3213733E-2,1.1390634E-1,-5.339217E-2,7.596305E-2,-5.847761E-2,-3.2398123E-3,2.1310588E-2,-5.7472986E-1,6.52379E-2,-2.7444202E-1,2.0688896E-1,-5.8528125E-2,-6.038926E-1,-1.4672376E-1,2.1117477E-2,-5.7115354E-2,-1.8142878E-1,6.808574E-2,-6.144563E-2,-2.3780396E-2,2.106892E-2,-4.812822E-2,-5.1869925E-2,1.9718511E-2],"categories":[],"categories_nodes":[],"categories_segments":[],"categories_sizes":[],"default_left":[0,0,0,0,0,0,0,0,0,0,0,0,0,0,0,0,0,0,0,0,0,0,0,0,0,0,0,0,0,0,0,0,0,0,0,0,0,0,0],"id":14,"left_children":[1,3,5,7,9,11,13,15,-1,17,19,21,23,-1,25,-1,-1,-1,-1,-1,-1,-1,27,-1,29,31,-1,33,35,-1,-1,37,-1,-1,-1,-1,-1,-1,-1],"loss_changes":[9.93067E0,8.125418E0,4.8194847E0,3.4660578E0,1.4891142E0,3.1793766E0,5.953559E0,1.1388054E0,0E0,4.025627E0,7.211633E-1,2.198866E0,2.811735E0,0E0,3.8274944E0,0E0,0E0,0E0,0E0,0E0,0E0,0E0,1.0733643E0,0E0,2.2453249E0,2.2921417E0,0E0,1.8968391E-1,9.694369E-1,0E0,0E0,1.0301322E0,0E0,0E0,0E0,0E0,0E0,0E0,0E0],"parents":[2147483647,0,0,1,1,2,2,3,3,4,4,5,5,6,6,7,7,9,9,10,10,11,11,12,12,14,14,22,22,24,24,25,25,27,27,28,28,31,31],"right_children":[2,4,6,8,10,12,14,16,-1,18,20,22,24,-1,26,-1,-1,-1,-1,-1,-1,-1,28,-1,30,32,-1,34,36,-1,-1,38,-1,-1,-1,-1,-1,-1,-1],"split_conditions":[5.973109E1,6.8264556E0,8.020863E1,1.01683185E3,1.4098432E1,3.1718718E1,1.0927157E0,5.40106E1,-6.312611E-3,8.667517E0,6.5717186E1,7.970726E-1,1.1093967E2,9.666522E-2,6.822832E0,4.3213733E-2,1.1390634E-1,-5.339217E-2,7.596305E-2,-5.847761E-2,-3.2398123E-3,2.1310588E-2,1.5471127E2,6.52379E-2,5.1230547E3,2.7044725E1,-5.8528125E-2,3.227242E1,6.678522E1,2.1117477E-2,-5.7115354E-2,2.4204311E0,6.808574E-2,-6.144563E-2,-2.3780396E-2,2.106892E-2,-4.812822E-2,-5.1869925E-2,1.9718511E-2],"split_indices":[10,9,13,16,7,24,27,10,0,7,4,24,2,0,9,0,0,0,0,0,0,0,2,0,5,18,0,30,10,0,0,20,0,0,0,0,0,0,0],"split_type":[0,0,0,0,0,0,0,0,0,0,0,0,0,0,0,0,0,0,0,0,0,0,0,0,0,0,0,0,0,0,0,0,0,0,0,0,0,0,0],"sum_hessian":[1.7759708E2,3.8423367E1,1.3917372E2,1.838403E1,2.0039337E1,1.1225508E2,2.6918634E1,1.3447366E1,4.9366636E0,7.6650577E0,1.237428E1,9.5292496E1,1.696259E1,4.1783857E0,2.2740248E1,5.5924053E0,7.854961E0,4.0760617E0,3.5889957E0,9.13233E0,3.2419496E0,3.199896E0,9.20926E1,3.2166672E0,1.3745921E1,1.0782724E1,1.1957524E1,8.583328E1,6.259311E0,5.322714E0,8.423207E0,6.266145E0,4.5165787E0,8.276658E1,3.0667045E0,3.2052982E0,3.054013E0,3.1183307E0,3.1478143E0],"tree_param":{"num_deleted":"0","num_feature":"36","num_nodes":"39","size_leaf_vector":"1"}},{"base_weights":[-5.5459615E-2,-4.0142846E-1,2.2298059E-1,-4.983002E-1,-1.0942601E-1,-1.426785E-1,5.72762E-1,-5.3416955E-1,1.7340422E-2,-2.5505534E-1,6.8202674E-2,-5.181149E-1,2.5009388E-2,7.012091E-1,-3.0652003E-2,-3.818322E-1,-6.294863E-2,4.132296E-2,-3.979293E-1,-4.1929428E-3,-6.1947864E-2,-3.0583012E-1,2.9449928E-1,4.3896985E-1,9.248785E-1,-4.1829973E-2,3.981435E-2,8.168237E-2,-5.2715623E-1,-5.3837683E-2,1.9325523E-2,2.0724973E-2,-5.0661135E-1,-2.1476658E-1,5.2274734E-1,-7.2080125E-3,7.8589815E-1,1.0361109E-1,1.4153582E-2,-2.8266907E-2,4.4333756E-2,-2.3252284E-2,-6.0671616E-2,-1.6573135E-2,-6.333823E-2,1.54381385E-2,-5.2241165E-2,9.099896E-2,1.1229077E-2,-3.6988232E-2,5.1866163E-2,1.01664804E-1,2.6015699E-2],"categories":[],"categories_nodes":[],"categories_segments":[],"categories_sizes":[],"default_left":[0,0,0,0,0,0,0,0,0,0,0,0,0,0,0,0,0,0,0,0,0,0,0,0,0,0,0,0,0,0,0,0,0,0,0,0,0,0,0,0,0,0,0,0,0,0,0,0,0,0,0,0,0],"id":15,"left_children":[1,3,5,7,9,11,13,15,-1,17,-1,19,21,23,25,27,-1,-1,29,-1,-1,31,33,35,37,-1,-1,39,41,-1,-1,-1,43,45,47,49,51,-1,-1,-1,-1,-1,-1,-1,-1,-1,-1,-1,-1,-1,-1,-1,-1],"loss_changes":[1.976908E1,2.532446E0,1.4641247E1,1.740427E0,2.9474986E0,3.5671275E0,4.5463276E0,7.059269E-1,0E0,2.1744719E0,0E0,8.175683E-1,3.6544604E0,2.4197426E0,2.0289266E0,1.9038196E0,0E0,0E0,1.5864065E0,0E0,0E0,2.004318E0,2.7324595E0,3.7329264E0,2.040083E0,0E0,0E0,1.1082491E0,3.5504723E-1,0E0,0E0,0E0,4.8021674E-1,9.5340776E-1,2.4181356E0,2.3896704E0,1.3799725E0,0E0,0E0,0E0,0E0,0E0,0E0,0E0,0E0,0E0,0E0,0E0,0E0,0E0,0E0,0E0,0E0],"parents":[2147483647,0,0,1,1,2,2,3,3,4,4,5,5,6,6,7,7,9,9,11,11,12,12,13,13,14,14,15,15,18,18,21,21,22,22,23,23,24,24,27,27,28,28,32,32,33,33,34,34,35,35,36,36],"right_children":[2,4,6,8,10,12,14,16,-1,18,-1,20,22,24,26,28,-1,-1,30,-1,-1,32,34,36,38,-1,-1,40,42,-1,-1,-1,44,46,48,50,52,-1,-1,-1,-1,-1,-1,-1,-1,-1,-1,-1,-1,-1,-1,-1,-1],"split_conditions":[6.9977617E0,9.8450836E1,7.003511E1,5.003641E1,8.728391E0,1.2895318E1,7.89786E1,1.0101009E3,1.7340422E-2,2.2488086E3,6.8202674E-2,1.2290098E1,1.0120174E3,4.407335E1,7.5948544E0,1.1596466E1,-6.294863E-2,4.132296E-2,4.094316E0,-4.1929428E-3,-6.1947864E-2,4.7415146E1,3.881738E1,7.7233295E0,6.967236E1,-4.1829973E-2,3.981435E-2,2.1355605E0,2.0096E0,-5.3837683E-2,1.9325523E-2,2.0724973E-2,1.0016653E3,7.699064E0,3.0763788E2,3.2311785E0,2.3434193E0,1.0361109E-1,1.4153582E-2,-2.8266907E-2,4.4333756E-2,-2.3252284E-2,-6.0671616E-2,-1.6573135E-2,-6.333823E-2,1.54381385E-2,-5.2241165E-2,9.099896E-2,1.1229077E-2,-3.6988232E-2,5.1866163E-2,1.01664804E-1,2.6015699E-2],"split_indices":[9,11,10,7,21,7,19,34,0,5,0,24,28,3,9,30,0,0,14,0,0,13,3,8,31,0,0,32,21,0,0,0,22,8,6,20,26,0,0,0,0,0,0,0,0,0,0,0,0,0,0,0,0],"split_type":[0,0,0,0,0,0,0,0,0,0,0,0,0,0,0,0,0,0,0,0,0,0,0,0,0,0,0,0,0,0,0,0,0,0,0,0,0,0,0,0,0,0,0,0,0,0,0,0,0,0,0,0,0],"sum_hessian":[2.0328976E2,9.0455215E1,1.1283455E2,6.739159E1,2.3063633E1,5.5454693E1,5.737986E1,6.416965E1,3.2219398E0,2.0051788E1,3.011843E0,1.6476254E1,3.897844E1,4.717564E1,1.0204219E1,2.6624184E1,3.754546E1,3.198538E0,1.685325E1,3.139797E0,1.3336456E1,1.743702E1,2.154142E1,2.3079206E1,2.4096434E1,5.372105E0,4.8321137E0,6.45947E0,2.0164713E1,1.36902E1,3.1630514E0,4.8952913E0,1.2541728E1,6.684984E0,1.4856437E1,1.0523874E1,1.2555332E1,2.0817701E1,3.2787325E0,3.3265357E0,3.1329343E0,5.12138E0,1.5043333E1,4.0252852E0,8.516442E0,3.2652023E0,3.4197817E0,7.018173E0,7.838263E0,6.40393E0,4.119944E0,8.0766945E0,4.4786377E0],"tree_param":{"num_deleted":"0","num_feature":"36","num_nodes":"53","size_leaf_vector":"1"}},{"base_weights":[2.2633594E-1,1.3097012E-1,4.3033844E-1,7.005032E-1,8.473947E-2,5.0052947E-1,-1.7043498E-1,2.970018E-2,8.245548E-2,1.8903783E-1,-9.799259E-2,-2.5020832E-2,5.4340005E-1,1.0615933E-2,-4.692429E-2,7.654502E-2,5.083472E-1,4.3076456E-1,-2.3081292E-1,-5.6462134E-3,5.7753813E-1,3.724323E-1,-2.9394958E-2,6.31022E-1,-2.2909293E-2,7.0608556E-2,-1.0038717E-2,-7.1033716E-2,-7.871496E-2,6.5433794E-1,2.1210273E-1,6.4017917E-3,8.234968E-2,-2.2765245E-2,3.0633925E-2,8.892168E-2,3.917791E-2,-2.4128757E-2,4.614449E-2,9.359788E-3,7.31613E-2,5.51909E-2,-2.5105223E-2],"categories":[],"categories_nodes":[],"categories_segments":[],"categories_sizes":[],"default_left":[0,0,0,0,0,0,0,0,0,0,0,0,0,0,0,0,0,0,0,0,0,0,0,0,0,0,0,0,0,0,0,0,0,0,0,0,0,0,0,0,0,0,0],"id":16,"left_children":[1,3,5,7,9,11,13,-1,-1,15,17,-1,19,-1,-1,21,23,25,27,-1,29,31,33,35,-1,-1,-1,37,-1,39,41,-1,-1,-1,-1,-1,-1,-1,-1,-1,-1,-1,-1],"loss_changes":[4.6581125E0,4.3264294E0,3.3221102E0,3.741989E-1,2.9764752E0,2.3561249E0,7.751218E-1,0E0,0E0,3.5224822E0,4.106353E0,0E0,1.3753815E0,0E0,0E0,2.346097E0,2.4652395E0,1.7969694E0,4.055407E0,0E0,1.6048985E0,2.6897197E0,3.7826731E0,1.0266695E0,0E0,0E0,0E0,3.4684346E0,0E0,2.135357E0,2.0695174E0,0E0,0E0,0E0,0E0,0E0,0E0,0E0,0E0,0E0,0E0,0E0,0E0],"parents":[2147483647,0,0,1,1,2,2,3,3,4,4,5,5,6,6,9,9,10,10,12,12,15,15,16,16,17,17,18,18,20,20,21,21,22,22,23,23,27,27,29,29,30,30],"right_children":[2,4,6,8,10,12,14,-1,-1,16,18,-1,20,-1,-1,22,24,26,28,-1,30,32,34,36,-1,-1,-1,38,-1,40,42,-1,-1,-1,-1,-1,-1,-1,-1,-1,-1,-1,-1],"split_conditions":[1.0179963E3,2.7924301E1,8.202105E0,2.1372923E1,1.011039E3,4.9394417E0,1.0269976E3,2.970018E-2,8.245548E-2,1.01014484E3,5.5450825E1,-2.5020832E-2,1.0141519E3,1.0615933E-2,-4.692429E-2,1.4872295E0,8.72683E0,7.5904045E1,9.868555E1,-5.6462134E-3,8.954336E0,1.9909658E0,4.480931E0,1.01034216E3,-2.2909293E-2,7.0608556E-2,-1.0038717E-2,9.607886E0,-7.871496E-2,4.12509E1,7.19299E0,6.4017917E-3,8.234968E-2,-2.2765245E-2,3.0633925E-2,8.892168E-2,3.917791E-2,-2.4128757E-2,4.614449E-2,9.359788E-3,7.31613E-2,5.51909E-2,-2.5105223E-2],"split_indices":[22,3,21,3,34,8,34,0,0,16,4,0,16,0,0,20,33,10,11,0,35,32,20,28,0,0,0,29,0,25,9,0,0,0,0,0,0,0,0,0,0,0,0],"split_type":[0,0,0,0,0,0,0,0,0,0,0,0,0,0,0,0,0,0,0,0,0,0,0,0,0,0,0,0,0,0,0,0,0,0,0,0,0,0,0,0,0,0,0],"sum_hessian":[2.4132878E2,1.6557079E2,7.5757996E1,1.1368275E1,1.5420251E2,6.798219E1,7.775802E0,3.471322E0,7.896953E0,9.814791E1,5.6054596E1,3.4111266E0,6.457107E1,4.3728013E0,3.4030006E0,7.349524E1,2.4652678E1,1.0803339E1,4.5251255E1,3.4416533E0,6.1129414E1,1.8713493E1,5.4781742E1,2.1260288E1,3.3923879E0,6.8982844E0,3.9050546E0,3.6030907E1,9.22035E0,4.9860233E1,1.1269178E1,1.1792396E1,6.921098E0,3.464508E1,2.0136662E1,8.918502E0,1.2341786E1,2.7715921E1,8.314985E0,6.3067837E0,4.355345E1,6.389626E0,4.8795524E0],"tree_param":{"num_deleted":"0","num_feature":"36","num_nodes":"43","size_leaf_vector":"1"}},{"base_weights":[-2.5486317E-1,2.1248014E-1,-3.840932E-1,-6.439584E-2,6.3598835E-1,-4.7792333E-1,-2.8758273E-2,3.8220534E-1,-3.1169274E-1,-1.1606171E-3,8.9686143E-1,-3.445723E-2,-5.296043E-1,9.028938E-2,-2.5776526E-1,8.382416E-2,-2.8897185E-2,-5.8748133E-2,1.5098289E-2,1.0658828E-1,3.843536E-2,5.9960097E-2,-5.4960575E-2,-3.4535265E-1,-6.036776E-1,-5.312154E-1,2.3222367E-1,2.6764944E-2,-4.5072472E-1,-2.3961801E-2,-6.171542E-2,-2.2862433E-2,-5.8415145E-2,-2.3994515E-2,8.530193E-2,-5.4555714E-2,-9.631684E-3],"categories":[],"categories_nodes":[],"categories_segments":[],"categories_sizes":[],"default_left":[0,0,0,0,0,0,0,0,0,0,0,0,0,0,0,0,0,0,0,0,0,0,0,0,0,0,0,0,0,0,0,0,0,0,0,0,0],"id":17,"left_children":[1,3,5,7,9,11,13,15,17,-1,19,21,23,-1,25,-1,-1,-1,-1,-1,-1,-1,-1,27,29,31,33,-1,35,-1,-1,-1,-1,-1,-1,-1,-1],"loss_changes":[1.0461827E1,4.482148E0,4.4872303E0,2.7488136E0,2.555437E0,2.4279346E0,6.476546E0,2.9770305E0,2.1144118E0,0E0,5.216732E-1,4.317689E0,1.0952263E0,0E0,3.3750563E0,0E0,0E0,0E0,0E0,0E0,0E0,0E0,0E0,2.040839E0,1.7983818E-1,1.2081814E-1,2.9566116E0,0E0,8.1254816E-1,0E0,0E0,0E0,0E0,0E0,0E0,0E0,0E0],"parents":[2147483647,0,0,1,1,2,2,3,3,4,4,5,5,6,6,7,7,8,8,10,10,11,11,12,12,14,14,23,23,24,24,25,25,26,26,28,28],"right_children":[2,4,6,8,10,12,14,16,18,-1,20,22,24,-1,26,-1,-1,-1,-1,-1,-1,-1,-1,28,30,32,34,-1,36,-1,-1,-1,-1,-1,-1,-1,-1],"split_conditions":[5.973109E1,7.261007E1,2.9295122E1,9.135462E0,4.8332076E0,1.0285528E0,4.9905596E0,5.1230547E3,4.259487E0,-1.1606171E-3,3.276733E2,6.797459E1,3.9268253E1,9.028938E-2,8.537624E0,8.382416E-2,-2.8897185E-2,-5.8748133E-2,1.5098289E-2,1.0658828E-1,3.843536E-2,5.9960097E-2,-5.4960575E-2,6.3597477E1,5.0688793E1,4.571039E1,5.1958286E1,2.6764944E-2,4.8148804E0,-2.3961801E-2,-6.171542E-2,-2.2862433E-2,-5.8415145E-2,-2.3994515E-2,8.530193E-2,-5.4555714E-2,-9.631684E-3],"split_indices":[10,13,12,7,17,27,7,5,15,0,6,10,3,0,8,0,0,0,0,0,0,0,0,10,4,25,3,0,26,0,0,0,0,0,0,0,0],"split_type":[0,0,0,0,0,0,0,0,0,0,0,0,0,0,0,0,0,0,0,0,0,0,0,0,0,0,0,0,0,0,0,0,0,0,0,0,0],"sum_hessian":[1.7087271E2,3.687499E1,1.3399771E2,2.2810299E1,1.4064691E1,1.057328E2,2.8264915E1,7.9348946E0,1.4875404E1,4.3131604E0,9.751531E0,1.1209823E1,9.452298E1,4.996279E0,2.3268637E1,4.5764675E0,3.358427E0,9.150994E0,5.7244105E0,6.5211596E0,3.230371E0,4.9514775E0,6.258345E0,2.8727587E1,6.5795395E1,1.4880227E1,8.388409E0,3.9879055E0,2.4739681E1,3.0190384E0,6.2776352E1,3.0075338E0,1.1872694E1,5.1130095E0,3.2753987E0,1.909176E1,5.6479197E0],"tree_param":{"num_deleted":"0","num_feature":"36","num_nodes":"37","size_leaf_vector":"1"}},{"base_weights":[-7.599441E-2,-3.841301E-1,1.694152E-1,5.5551725E-3,-4.4935584E-1,-1.4662814E-1,4.410637E-1,-5.5189945E-2,4.1307414E-1,-5.171352E-1,3.5977118E-2,-5.296509E-1,6.587236E-2,6.1183804E-1,-1.1305789E-2,-9.574256E-4,8.390779E-2,-5.521403E-1,-1.4665854E-1,-5.234921E-2,4.6013054E-2,-6.212721E-2,-9.398517E-3,-3.088672E-1,2.6052308E-1,6.1705332E-2,7.553204E-1,5.0928112E-2,-2.6298922E-1,-2.9504302E-1,-5.7642587E-2,-2.5210952E-2,-3.6333277E-4,2.1563547E-2,-5.8721293E-2,-3.6470983E-2,3.980052E-1,4.9325146E-2,-3.086156E-2,8.385554E-1,-9.62546E-3,1.6222857E-2,-4.932257E-2,-5.0240993E-2,-9.251672E-4,-1.717266E-3,6.891575E-2,9.2795186E-2,2.3535421E-2],"categories":[],"categories_nodes":[],"categories_segments":[],"categories_sizes":[],"default_left":[0,0,0,0,0,0,0,0,0,0,0,0,0,0,0,0,0,0,0,0,0,0,0,0,0,0,0,0,0,0,0,0,0,0,0,0,0,0,0,0,0,0,0,0,0,0,0,0,0],"id":18,"left_children":[1,3,5,7,9,11,13,-1,15,17,19,21,23,25,27,-1,-1,29,31,-1,-1,-1,-1,33,35,37,39,-1,41,43,-1,-1,-1,-1,-1,-1,45,-1,-1,47,-1,-1,-1,-1,-1,-1,-1,-1,-1],"loss_changes":[1.5393797E1,2.294526E0,9.811825E0,3.389599E0,2.56005E0,4.367333E0,4.742876E0,0E0,1.5585797E0,7.9901505E-1,2.7093456E0,7.041812E-1,2.642579E0,3.4677029E0,2.463855E0,0E0,0E0,2.1476936E-1,1.0797191E-1,0E0,0E0,0E0,0E0,1.9464585E0,2.1788864E0,1.7980887E0,2.5773544E0,0E0,1.3181295E0,4.3201923E-1,0E0,0E0,0E0,0E0,0E0,0E0,2.4140768E0,0E0,0E0,1.5174065E0,0E0,0E0,0E0,0E0,0E0,0E0,0E0,0E0,0E0],"parents":[2147483647,0,0,1,1,2,2,3,3,4,4,5,5,6,6,8,8,9,9,10,10,11,11,12,12,13,13,14,14,17,17,18,18,23,23,24,24,25,25,26,26,28,28,29,29,36,36,39,39],"right_children":[2,4,6,8,10,12,14,-1,16,18,20,22,24,26,28,-1,-1,30,32,-1,-1,-1,-1,34,36,38,40,-1,42,44,-1,-1,-1,-1,-1,-1,46,-1,-1,48,-1,-1,-1,-1,-1,-1,-1,-1,-1],"split_conditions":[6.9977617E0,1.5864077E0,6.939903E1,4.7172752E1,8.759348E0,1.7058601E1,6.865817E1,-5.5189945E-2,1.4180278E0,1.0026402E1,1.8606882E1,7.867138E1,3.9586094E1,1.6294942E0,3.1334693E0,-9.574256E-4,8.390779E-2,1.4034678E0,1.0087196E3,-5.234921E-2,4.6013054E-2,-6.212721E-2,-9.398517E-3,6.2910225E1,5.6217216E1,1.5211657E1,8.222141E1,5.0928112E-2,7.384059E1,8.819472E-1,-5.7642587E-2,-2.5210952E-2,-3.6333277E-4,2.1563547E-2,-5.8721293E-2,-3.6470983E-2,1.01131085E3,4.9325146E-2,-3.086156E-2,1.488116E2,-9.62546E-3,1.6222857E-2,-4.932257E-2,-5.0240993E-2,-9.251672E-4,-1.717266E-3,6.891575E-2,9.2795186E-2,2.3535421E-2],"split_indices":[9,33,10,3,21,7,25,0,21,23,7,0,3,21,23,0,0,27,28,0,0,0,0,25,4,12,0,0,31,27,0,0,0,0,0,0,28,0,0,2,0,0,0,0,0,0,0,0,0],"split_type":[0,0,0,0,0,0,0,0,0,0,0,0,0,0,0,0,0,0,0,0,0,0,0,0,0,0,0,0,0,0,0,0,0,0,0,0,0,0,0,0,0,0,0,0,0,0,0,0,0],"sum_hessian":[2.0170868E2,8.9175224E1,1.1253345E2,1.2917232E1,7.6257996E1,5.2229008E1,6.030444E1,5.305468E0,7.611763E0,6.6855705E1,9.402287E0,1.8104313E1,3.4124695E1,4.3521927E1,1.6782513E1,4.311624E0,3.3001392E0,6.0636055E1,6.2196536E0,3.9534197E0,5.4488664E0,1.4606512E1,3.497801E0,1.1465212E1,2.2659483E1,9.298841E0,3.4223083E1,5.1358733E0,1.1646639E1,6.3682146E0,5.426784E1,3.1410775E0,3.078576E0,4.053073E0,7.412139E0,3.7865334E0,1.887295E1,4.141117E0,5.157725E0,3.1189806E1,3.0332775E0,4.1947846E0,7.4518547E0,3.251212E0,3.1170027E0,8.167402E0,1.0705547E1,2.6695124E1,4.494684E0],"tree_param":{"num_deleted":"0","num_feature":"36","num_nodes":"49","size_leaf_vector":"1"}},{"base_weights":[2.2997862E-1,1.3603204E-1,4.9442133E-1,2.621038E-1,1.3605333E-2,6.977769E-1,2.8857443E-1,5.559019E-1,1.9977814E-2,2.695949E-1,-2.55558E-1,7.640458E-2,2.365098E-2,6.329421E-1,7.440197E-2,-7.450893E-3,6.354057E-1,1.4871654E-1,-5.743469E-1,-8.90716E-2,4.1984856E-1,-3.7939927E-1,3.9286447E-1,2.7182637E-2,7.8996286E-2,-3.6398196E-1,3.928315E-1,1.1619408E-2,7.132133E-1,-1.8054768E-1,3.5865334E-1,-2.550163E-2,-7.154147E-2,3.912154E-1,-5.392034E-1,6.4578336E-1,1.06071435E-1,4.0537175E-2,-4.6581984E-1,-7.054489E-3,7.615789E-2,-6.9951735E-2,4.010191E-3,6.967393E-2,-1.8964479E-2,3.0286482E-2,8.383248E-2,-4.6428338E-2,4.452448E-2,-3.2098312E-2,4.9357507E-2,1.1131006E-2,5.8255572E-2,-7.03501E-2,-2.3060292E-2,2.7938856E-2,8.9139834E-2,4.6391666E-2,-3.6495127E-2,-5.5227723E-2,-8.3277683E-4],"categories":[],"categories_nodes":[],"categories_segments":[],"categories_sizes":[],"default_left":[0,0,0,0,0,0,0,0,0,0,0,0,0,0,0,0,0,0,0,0,0,0,0,0,0,0,0,0,0,0,0,0,0,0,0,0,0,0,0,0,0,0,0,0,0,0,0,0,0,0,0,0,0,0,0,0,0,0,0,0,0],"id":19,"left_children":[1,3,5,7,9,11,13,15,17,19,21,-1,-1,23,25,-1,27,29,31,33,35,37,39,-1,-1,41,43,-1,45,47,49,-1,-1,51,53,55,57,-1,59,-1,-1,-1,-1,-1,-1,-1,-1,-1,-1,-1,-1,-1,-1,-1,-1,-1,-1,-1,-1,-1,-1],"loss_changes":[6.044359E0,2.8193774E0,2.4821663E0,6.3948956E0,6.5350995E0,7.8350353E-1,2.4283566E0,2.084612E0,3.9420264E0,2.6557536E0,3.8637004E0,0E0,0E0,5.0747585E-1,3.1898835E0,0E0,1.3795824E0,2.983532E0,2.3109484E-1,3.490493E0,2.3714056E0,2.8575182E0,1.4051715E0,0E0,0E0,1.3435866E0,2.455351E0,0E0,1.3524075E0,3.2439327E0,2.5535302E0,0E0,0E0,3.5924768E-1,2.5611997E-1,1.533927E0,2.799422E0,0E0,1.4158206E0,0E0,0E0,0E0,0E0,0E0,0E0,0E0,0E0,0E0,0E0,0E0,0E0,0E0,0E0,0E0,0E0,0E0,0E0,0E0,0E0,0E0,0E0],"parents":[2147483647,0,0,1,1,2,2,3,3,4,4,5,5,6,6,7,7,8,8,9,9,10,10,13,13,14,14,16,16,17,17,18,18,19,19,20,20,21,21,22,22,25,25,26,26,28,28,29,29,30,30,33,33,34,34,35,35,36,36,38,38],"right_children":[2,4,6,8,10,12,14,16,18,20,22,-1,-1,24,26,-1,28,30,32,34,36,38,40,-1,-1,42,44,-1,46,48,50,-1,-1,52,54,56,58,-1,60,-1,-1,-1,-1,-1,-1,-1,-1,-1,-1,-1,-1,-1,-1,-1,-1,-1,-1,-1,-1,-1,-1],"split_conditions":[1.0198754E3,6.9977617E0,6.870327E0,5.8502815E1,6.939903E1,7.5489984E0,3.881738E1,2.810109E1,7.788733E3,7.38768E0,7.944447E1,7.640458E-2,2.365098E-2,7.140453E1,4.9997353E1,-7.450893E-3,1.2870454E0,4.1389683E1,5.708259E0,1.2884462E2,1.0090861E3,2.5432951E1,4.6347647E0,2.7182637E-2,7.8996286E-2,7.2962364E1,6.461191E0,1.1619408E-2,1.0026134E3,7.1721146E1,1.279524E2,-2.550163E-2,-7.154147E-2,5.3559487E3,1.0051733E3,1.00226855E3,6.6470175E0,4.0537175E-2,4.2825507E2,-7.054489E-3,7.615789E-2,-6.9951735E-2,4.010191E-3,6.967393E-2,-1.8964479E-2,3.0286482E-2,8.383248E-2,-4.6428338E-2,4.452448E-2,-3.2098312E-2,4.9357507E-2,1.1131006E-2,5.8255572E-2,-7.03501E-2,-2.3060292E-2,2.7938856E-2,8.9139834E-2,4.6391666E-2,-3.6495127E-2,-5.5227723E-2,-8.3277683E-4],"split_indices":[28,9,9,31,10,15,3,19,5,9,13,0,0,0,3,0,15,3,35,2,28,13,17,0,0,0,17,0,28,10,6,0,0,5,22,22,23,0,6,0,0,0,0,0,0,0,0,0,0,0,0,0,0,0,0,0,0,0,0,0,0],"split_type":[0,0,0,0,0,0,0,0,0,0,0,0,0,0,0,0,0,0,0,0,0,0,0,0,0,0,0,0,0,0,0,0,0,0,0,0,0,0,0,0,0,0,0,0,0,0,0,0,0,0,0,0,0,0,0,0,0,0,0,0,0],"sum_hessian":[2.4500468E2,1.8189767E2,6.310701E1,8.905269E1,9.284499E1,3.0543447E1,3.2563564E1,3.964777E1,4.9404915E1,4.758621E1,4.525878E1,2.6132643E1,4.410805E0,1.1736756E1,2.0826807E1,4.447219E0,3.5200554E1,4.1224834E1,8.18008E0,1.4169578E1,3.3416634E1,3.8349377E1,6.9094024E0,4.384485E0,7.352271E0,8.702697E0,1.2124111E1,4.9125266E0,3.0288027E1,1.6105309E1,2.5119524E1,3.366715E0,4.813366E0,6.918491E0,7.251087E0,1.881257E1,1.4604061E1,3.4380767E0,3.49113E1,3.419883E0,3.4895194E0,4.355195E0,4.3475013E0,7.8382993E0,4.2858114E0,7.876136E0,2.241189E1,1.1258683E1,4.846625E0,3.932326E0,2.1187199E1,3.451356E0,3.467135E0,3.8967986E0,3.3542883E0,8.407794E0,1.0404777E1,8.307657E0,6.2964044E0,2.9188114E1,5.7231874E0],"tree_param":{"num_deleted":"0","num_feature":"36","num_nodes":"61","size_leaf_vector":"1"}},{"base_weights":[-2.4358462E-1,2.2158E-1,-3.6806062E-1,6.0897064E-1,-1.9714211E-1,-4.6769354E-1,-3.8964376E-2,7.896648E-1,-1.208388E-2,-4.6338867E-2,4.4630982E-2,-5.440422E-1,-7.6165706E-2,5.9159267E-1,-3.776826E-1,3.721147E-2,1.0167859E-1,3.4335583E-2,-3.3416253E-2,-5.560965E-2,-5.854544E-1,6.1507255E-2,-3.1567824E-1,8.2334846E-1,-4.291442E-3,3.445267E-3,-5.299901E-2,4.4864193E-2,-4.901778E-2,-2.3530062E-2,-5.960473E-2,2.308002E-2,-4.878504E-2,3.7780236E-2,1.01884104E-1],"categories":[],"categories_nodes":[],"categories_segments":[],"categories_sizes":[],"default_left":[0,0,0,0,0,0,0,0,0,0,0,0,0,0,0,0,0,0,0,0,0,0,0,0,0,0,0,0,0,0,0,0,0,0,0],"id":20,"left_children":[1,3,5,7,9,11,13,15,-1,-1,17,19,21,23,25,-1,-1,-1,-1,27,29,-1,31,33,-1,-1,-1,-1,-1,-1,-1,-1,-1,-1,-1],"loss_changes":[1.0062259E1,6.12389E0,4.452856E0,2.6630197E0,1.2142935E0,3.0847397E0,7.2245684E0,1.1142435E0,0E0,0E0,1.317586E0,1.734314E0,3.2120497E0,1.7771049E0,1.3951497E0,0E0,0E0,0E0,0E0,1.9581304E0,1.580391E-1,0E0,1.4485018E0,3.750677E-1,0E0,0E0,0E0,0E0,0E0,0E0,0E0,0E0,0E0,0E0,0E0],"parents":[2147483647,0,0,1,1,2,2,3,3,4,4,5,5,6,6,7,7,10,10,11,11,12,12,13,13,14,14,19,19,20,20,22,22,23,23],"right_children":[2,4,6,8,10,12,14,16,-1,-1,18,20,22,24,26,-1,-1,-1,-1,28,30,-1,32,34,-1,-1,-1,-1,-1,-1,-1,-1,-1,-1,-1],"split_conditions":[5.973109E1,6.757417E0,7.62545E1,1.018884E3,5.7693703E1,9.887431E0,6.5695724E0,6.644974E1,-1.208388E-2,-4.6338867E-2,7.447696E0,9.9812305E2,8.667517E0,7.9238033E0,4.0283367E1,3.721147E-2,1.0167859E-1,3.4335583E-2,-3.3416253E-2,7.631422E0,5.2240176E0,6.1507255E-2,1.0286723E1,2.126209E1,-4.291442E-3,3.445267E-3,-5.299901E-2,4.4864193E-2,-4.901778E-2,-2.3530062E-2,-5.960473E-2,2.308002E-2,-4.878504E-2,3.7780236E-2,1.01884104E-1],"split_indices":[10,9,13,16,31,8,9,19,0,0,9,22,7,35,3,0,0,0,0,8,9,0,8,24,0,0,0,0,0,0,0,0,0,0,0],"split_type":[0,0,0,0,0,0,0,0,0,0,0,0,0,0,0,0,0,0,0,0,0,0,0,0,0,0,0,0,0,0,0,0,0,0,0],"sum_hessian":[1.7137286E2,3.601296E1,1.3535991E2,1.8470337E1,1.7542624E1,1.0358017E2,3.1779736E1,1.4739064E1,3.7312722E0,7.9125257E0,9.630098E0,8.6351845E1,1.7228323E1,1.0844702E1,2.0935034E1,6.1221714E0,8.616893E0,5.4363937E0,4.1937046E0,6.9322906E0,7.9419556E1,4.029907E0,1.3198417E1,7.725367E0,3.1193347E0,5.8578444E0,1.507719E1,3.1938815E0,3.738409E0,3.0136805E0,7.6405876E1,3.0804563E0,1.011796E1,3.2502675E0,4.4750996E0],"tree_param":{"num_deleted":"0","num_feature":"36","num_nodes":"35","size_leaf_vector":"1"}},{"base_weights":[-1.01927266E-1,-4.076765E-1,7.138847E-2,8.491379E-3,-4.3626255E-1,1.8956877E-1,-4.6769708E-1,-4.8833057E-1,-1.7184567E-1,-2.0313446E-1,3.5972336E-1,-5.6925375E-2,1.5481633E-2,-5.413261E-1,-4.8879076E-2,4.0406235E-2,-4.617787E-2,4.4288605E-2,-4.6135655E-1,4.673416E-1,-1.4161867E-1,-3.4423074E-1,-5.846316E-1,-2.7725337E-2,1.951166E-2,-4.4864513E-2,3.2490477E-1,1.147164E-2,-6.1743665E-2,-2.264229E-1,5.5442566E-1,-4.8066594E-2,4.7918122E-2,-5.5113237E-2,-1.3269418E-3,-2.718831E-2,-6.272198E-2,6.409901E-2,-3.0654687E-2,-5.230869E-2,1.0998823E-2,6.8523444E-2,-6.7423224E-3],"categories":[],"categories_nodes":[],"categories_segments":[],"categories_sizes":[],"default_left":[0,0,0,0,0,0,0,0,0,0,0,0,0,0,0,0,0,0,0,0,0,0,0,0,0,0,0,0,0,0,0,0,0,0,0,0,0,0,0,0,0,0,0],"id":21,"left_children":[1,3,5,-1,7,9,11,13,15,17,19,-1,-1,21,23,-1,-1,25,27,29,31,33,35,-1,-1,-1,37,-1,-1,39,41,-1,-1,-1,-1,-1,-1,-1,-1,-1,-1,-1,-1],"loss_changes":[1.0448568E1,1.0408154E0,8.137827E0,0E0,8.4591484E-1,7.0448713E0,1.5425448E0,1.2750006E0,2.2995234E0,2.0764518E0,4.013214E0,0E0,0E0,2.2355556E-1,4.5046207E-1,0E0,0E0,2.545201E0,1.4945414E0,3.778286E0,3.1130495E0,7.7314126E-1,3.5388756E-1,0E0,0E0,0E0,2.5184903E0,0E0,0E0,8.013351E-1,4.439333E0,0E0,0E0,0E0,0E0,0E0,0E0,0E0,0E0,0E0,0E0,0E0,0E0],"parents":[2147483647,0,0,1,1,2,2,4,4,5,5,6,6,7,7,8,8,9,9,10,10,13,13,14,14,17,17,18,18,19,19,20,20,21,21,22,22,26,26,29,29,30,30],"right_children":[2,4,6,-1,8,10,12,14,16,18,20,-1,-1,22,24,-1,-1,26,28,30,32,34,36,-1,-1,-1,38,-1,-1,40,42,-1,-1,-1,-1,-1,-1,-1,-1,-1,-1,-1,-1],"split_conditions":[6.618039E1,1.6319458E3,9.906019E0,8.491379E-3,1.0223716E3,3.85762E1,9.926954E1,6.543807E1,1.0235239E3,3.212415E0,7.944447E1,-5.6925375E-2,1.5481633E-2,6.601211E1,1.5709274E1,4.0406235E-2,-4.617787E-2,1.0581958E0,4.155302E1,1.4644547E0,3.1568055E0,1.3758856E2,1.8692749E0,-2.7725337E-2,1.951166E-2,-4.4864513E-2,9.80586E1,1.147164E-2,-6.1743665E-2,2.9298837E2,1.0220872E3,-4.8066594E-2,4.7918122E-2,-5.5113237E-2,-1.3269418E-3,-2.718831E-2,-6.272198E-2,6.409901E-2,-3.0654687E-2,-5.230869E-2,1.0998823E-2,6.8523444E-2,-6.7423224E-3],"split_indices":[10,5,8,0,16,3,11,3,28,27,13,0,0,0,12,0,0,33,13,7,20,2,33,0,0,0,11,0,0,6,22,0,0,0,0,0,0,0,0,0,0,0,0],"split_type":[0,0,0,0,0,0,0,0,0,0,0,0,0,0,0,0,0,0,0,0,0,0,0,0,0,0,0,0,0,0,0,0,0,0,0,0,0,0,0,0,0,0,0],"sum_hessian":[1.956265E2,7.0284386E1,1.253421E2,3.7469583E0,6.653743E1,1.03336624E2,2.200548E1,5.4883205E1,1.1654224E1,3.1180557E1,7.215607E1,1.899259E1,3.0128899E0,4.8769985E1,6.113221E0,3.7706866E0,7.8835373E0,1.6346329E1,1.48342285E1,5.9460148E1,1.2695917E1,1.0397412E1,3.837257E1,3.0872877E0,3.0259335E0,5.712644E0,1.0633685E1,3.218851E0,1.1615377E1,6.4528418E0,5.3007305E1,8.357328E0,4.3385887E0,5.988459E0,4.4089537E0,5.4840627E0,3.2888508E1,7.0763674E0,3.5573173E0,3.1341176E0,3.3187242E0,4.371064E1,9.296663E0],"tree_param":{"num_deleted":"0","num_feature":"36","num_nodes":"43","size_leaf_vector":"1"}},{"base_weights":[2.1930055E-1,1.5209717E-1,4.091277E-1,4.665527E-1,1.1282076E-1,-2.5922088E-2,4.5053104E-1,-7.7556036E-3,5.8421695E-1,4.561027E-2,3.4624454E-1,1.2209064E-1,5.335432E-1,7.034928E-2,9.736198E-3,2.9405296E-1,-1.540716E-2,5.8060807E-1,1.6233262E-1,6.726115E-2,-1.3317545E-1,7.127733E-1,2.625248E-1,-2.4880124E-2,4.336099E-1,-1.1530946E-1,2.5618052E-1,-3.758082E-3,7.5516105E-2,-3.6613286E-2,3.3440948E-1,-3.96107E-2,2.9777497E-2,3.14455E-2,7.912358E-2,5.5235505E-1,-8.727612E-2,-1.0243091E-2,6.546142E-2,1.821944E-2,-2.954689E-2,-6.5240473E-3,6.272625E-2,5.584512E-2,-2.138281E-2,7.173193E-2,1.1004821E-2,4.5383513E-2,-4.2448618E-2],"categories":[],"categories_nodes":[],"categories_segments":[],"categories_sizes":[],"default_left":[0,0,0,0,0,0,0,0,0,0,0,0,0,0,0,0,0,0,0,0,0,0,0,0,0,0,0,0,0,0,0,0,0,0,0,0,0,0,0,0,0,0,0,0,0,0,0,0,0],"id":22,"left_children":[1,3,5,7,9,-1,11,-1,13,15,17,19,21,-1,-1,23,25,27,29,-1,31,33,35,-1,37,39,41,-1,-1,-1,43,-1,-1,-1,-1,45,47,-1,-1,-1,-1,-1,-1,-1,-1,-1,-1,-1,-1],"loss_changes":[3.0442657E0,2.18821E0,1.8622475E0,1.31465E0,2.5352957E0,0E0,1.5642633E0,0E0,8.849349E-1,1.935937E0,1.4661112E0,1.9662181E0,2.115738E0,0E0,0E0,2.0148234E0,2.8305626E0,1.7040987E0,2.0932257E0,0E0,1.2463379E0,6.248293E-1,2.1219935E0,0E0,2.482375E0,4.1360273E0,3.3892827E0,0E0,0E0,0E0,2.1916862E0,0E0,0E0,0E0,0E0,7.47231E-1,2.041439E0,0E0,0E0,0E0,0E0,0E0,0E0,0E0,0E0,0E0,0E0,0E0,0E0],"parents":[2147483647,0,0,1,1,2,2,3,3,4,4,6,6,8,8,9,9,10,10,11,11,12,12,15,15,16,16,17,17,18,18,20,20,21,21,22,22,24,24,25,25,26,26,30,30,35,35,36,36],"right_children":[2,4,6,8,10,-1,12,-1,14,16,18,20,22,-1,-1,24,26,28,30,-1,32,34,36,-1,38,40,42,-1,-1,-1,44,-1,-1,-1,-1,46,48,-1,-1,-1,-1,-1,-1,-1,-1,-1,-1,-1,-1],"split_conditions":[1.0202557E3,8.348196E-1,4.9394417E0,1.4887763E0,3.8318613E2,-2.5922088E-2,4.12509E1,-7.7556036E-3,2.6178587E1,1.3659883E0,1.0094432E3,3.1036036E1,4.5499606E0,7.034928E-2,9.736198E-3,2.0149452E2,4.685728E0,2.000642E0,6.5695724E0,6.726115E-2,2.6731896E0,1.4034678E0,6.846843E1,-2.4880124E-2,1.587872E1,2.479336E0,5.021724E1,-3.758082E-3,7.5516105E-2,-3.6613286E-2,1.0178895E3,-3.96107E-2,2.9777497E-2,3.14455E-2,7.912358E-2,7.6584404E1,1.0232048E3,-1.0243091E-2,6.546142E-2,1.821944E-2,-2.954689E-2,-6.5240473E-3,6.272625E-2,5.584512E-2,-2.138281E-2,7.173193E-2,1.1004821E-2,4.5383513E-2,-4.2448618E-2],"split_indices":[16,23,8,15,6,0,25,0,18,20,28,25,33,0,0,6,20,23,9,0,20,27,31,0,30,32,3,0,0,0,16,0,0,0,0,10,16,0,0,0,0,0,0,0,0,0,0,0,0],"split_type":[0,0,0,0,0,0,0,0,0,0,0,0,0,0,0,0,0,0,0,0,0,0,0,0,0,0,0,0,0,0,0,0,0,0,0,0,0,0,0,0,0,0,0,0,0,0,0,0,0],"sum_hessian":[2.4251222E2,1.8043509E2,6.2077118E1,1.8826588E1,1.616085E2,3.3143704E0,5.876275E1,3.4080029E0,1.5418584E1,1.2640709E2,3.520142E1,1.23541E1,4.640865E1,1.2027067E1,3.3915164E0,2.417113E1,1.0223596E2,1.4529335E1,2.0672085E1,3.3957329E0,8.958367E0,2.6953655E1,1.9454992E1,4.7830467E0,1.9388083E1,7.516301E1,2.7072948E1,3.3719814E0,1.1157353E1,4.8007536E0,1.5871332E1,5.6140037E0,3.3443642E0,5.259793E0,2.1693863E1,1.0322856E1,9.132137E0,5.8165927E0,1.3571489E1,2.8344843E1,4.681817E1,1.4948852E1,1.2124097E1,1.1253761E1,4.6175704E0,7.065802E0,3.2570539E0,3.3732796E0,5.7588577E0],"tree_param":{"num_deleted":"0","num_feature":"36","num_nodes":"49","size_leaf_vector":"1"}},{"base_weights":[-2.6049387E-1,-3.8661435E-1,1.6610699E-2,1.7139E-1,-4.368635E-1,1.6613378E-1,-4.3904397E-1,-4.662941E-2,5.2486724E-1,-5.152468E-1,-2.8144706E-2,-4.5098034E-3,6.238241E-1,-5.624325E-2,-4.859323E-3,2.1944398E-2,7.0114724E-2,-1.014314E-1,-5.500036E-1,6.958065E-2,-2.6037335E-1,3.8786757E-1,-2.7824774E-1,-6.834904E-3,9.016908E-2,2.2985686E-2,-4.767221E-2,-5.705726E-1,-5.053671E-3,2.6788486E-2,-5.52705E-2,6.529088E-1,-3.1100664E-2,-5.3811252E-2,5.201867E-2,-5.9277635E-2,-2.4040585E-2,1.6619915E-2,1.0226735E-1],"categories":[],"categories_nodes":[],"categories_segments":[],"categories_sizes":[],"default_left":[0,0,0,0,0,0,0,0,0,0,0,0,0,0,0,0,0,0,0,0,0,0,0,0,0,0,0,0,0,0,0,0,0,0,0,0,0,0,0],"id":23,"left_children":[1,3,5,7,9,11,13,-1,15,17,19,21,23,-1,-1,-1,-1,25,27,-1,29,31,33,-1,-1,-1,-1,35,-1,-1,-1,37,-1,-1,-1,-1,-1,-1,-1],"loss_changes":[5.9378233E0,3.3463478E0,3.7549448E0,2.5792792E0,3.4236145E0,3.2374816E0,6.291847E-1,0E0,2.302233E-1,1.2385426E0,3.2623658E0,3.454884E0,2.2263207E0,0E0,0E0,0E0,0E0,1.1289415E0,8.2172966E-1,0E0,2.4032583E0,2.6524057E0,4.2092237E0,0E0,0E0,0E0,0E0,4.3971634E-1,0E0,0E0,0E0,1.613513E0,0E0,0E0,0E0,0E0,0E0,0E0,0E0],"parents":[2147483647,0,0,1,1,2,2,3,3,4,4,5,5,6,6,8,8,9,9,10,10,11,11,12,12,17,17,18,18,20,20,21,21,22,22,27,27,31,31],"right_children":[2,4,6,8,10,12,14,-1,16,18,20,22,24,-1,-1,-1,-1,26,28,-1,30,32,34,-1,-1,-1,-1,36,-1,-1,-1,38,-1,-1,-1,-1,-1,-1,-1],"split_conditions":[7.30841E1,5.8984447E0,1.01982324E3,9.752528E1,3.1882078E1,2.7547985E1,1.3925659E2,-4.662941E-2,6.824524E0,9.9700946E2,1.1093967E2,4.0930534E1,3.8843641E0,-5.624325E-2,-4.859323E-3,2.1944398E-2,7.0114724E-2,4.815115E0,1.609488E2,6.958065E-2,1.3780542E1,1.4051944E2,8.39483E3,-6.834904E-3,9.016908E-2,2.2985686E-2,-4.767221E-2,1.0821865E1,-5.053671E-3,2.6788486E-2,-5.52705E-2,3.1022522E0,-3.1100664E-2,-5.3811252E-2,5.201867E-2,-5.9277635E-2,-2.4040585E-2,1.6619915E-2,1.0226735E-1],"split_indices":[13,12,28,11,24,12,2,0,8,16,2,3,35,0,0,0,0,23,2,0,7,2,5,0,0,0,0,35,0,0,0,20,0,0,0,0,0,0,0],"split_type":[0,0,0,0,0,0,0,0,0,0,0,0,0,0,0,0,0,0,0,0,0,0,0,0,0,0,0,0,0,0,0,0,0,0,0,0,0,0,0],"sum_hessian":[1.6871802E2,1.1567492E2,5.3043106E1,9.356992E0,1.06317924E2,4.0415993E1,1.2627113E1,3.2231555E0,6.1338367E0,8.89908E1,1.7327124E1,3.0161018E1,1.0254976E1,9.260258E0,3.3668556E0,3.0661955E0,3.067641E0,7.1988964E0,8.17919E1,3.7234378E0,1.3603685E1,1.2223237E1,1.793778E1,3.153514E0,7.1014624E0,4.0294333E0,3.1694634E0,7.842005E1,3.3718514E0,4.876047E0,8.727638E0,8.909984E0,3.3132534E0,1.3779151E1,4.1586304E0,7.2733345E1,5.6867085E0,4.4724765E0,4.437507E0],"tree_param":{"num_deleted":"0","num_feature":"36","num_nodes":"39","size_leaf_vector":"1"}},{"base_weights":[-4.4095874E-2,-2.8668135E-1,1.7296435E-1,-5.0748944E-1,-1.4872724E-1,2.720472E-1,-3.7940362E-1,-5.562339E-1,7.6591485E-4,-2.6323673E-1,3.3859792E-1,-1.0327893E-1,4.1324848E-1,1.6173892E-2,-5.844566E-2,-2.082087E-2,-6.1118137E-2,-4.9151415E-3,-3.6792123E-1,-1.7547766E-2,6.410273E-1,-4.0013576E-1,1.7461553E-1,5.198331E-1,-2.1616241E-1,-5.2631807E-2,2.4473181E-1,-5.1330394E-1,6.848209E-2,9.751751E-2,1.3960244E-2,-6.0223915E-2,1.7063621E-2,7.998842E-2,-1.9743104E-1,3.725401E-2,6.0201496E-1,-5.32722E-2,1.6576326E-2,-3.0934481E-2,5.976336E-2,-1.4838544E-2,-5.7341486E-2,-5.0016757E-2,4.3561064E-2,-5.4034095E-2,2.7543364E-2,-4.0587477E-2,5.486699E-2,7.629701E-2,1.8030463E-2],"categories":[],"categories_nodes":[],"categories_segments":[],"categories_sizes":[],"default_left":[0,0,0,0,0,0,0,0,0,0,0,0,0,0,0,0,0,0,0,0,0,0,0,0,0,0,0,0,0,0,0,0,0,0,0,0,0,0,0,0,0,0,0,0,0,0,0,0,0,0,0],"id":24,"left_children":[1,3,5,7,9,11,13,15,-1,17,19,21,23,-1,-1,-1,-1,25,27,-1,29,31,33,35,37,-1,39,41,43,-1,-1,-1,-1,-1,45,47,49,-1,-1,-1,-1,-1,-1,-1,-1,-1,-1,-1,-1,-1,-1],"loss_changes":[1.0314154E1,2.7401419E0,5.7680745E0,8.8635445E-1,3.3426974E0,4.724653E0,1.8877218E0,4.8670006E-1,0E0,1.2900915E0,1.9051914E0,2.1281648E0,4.432294E0,0E0,0E0,0E0,0E0,2.0540402E0,2.1912103E0,0E0,1.1162555E0,1.5294179E0,3.3177385E0,2.173212E0,1.3011589E0,0E0,2.2740288E0,4.7665215E-1,2.174922E0,0E0,0E0,0E0,0E0,0E0,1.6597364E0,2.289975E0,3.0689507E0,0E0,0E0,0E0,0E0,0E0,0E0,0E0,0E0,0E0,0E0,0E0,0E0,0E0,0E0],"parents":[2147483647,0,0,1,1,2,2,3,3,4,4,5,5,6,6,7,7,9,9,10,10,11,11,12,12,17,17,18,18,20,20,21,21,22,22,23,23,24,24,26,26,27,27,28,28,34,34,35,35,36,36],"right_children":[2,4,6,8,10,12,14,16,-1,18,20,22,24,-1,-1,-1,-1,26,28,-1,30,32,34,36,38,-1,40,42,44,-1,-1,-1,-1,-1,46,48,50,-1,-1,-1,-1,-1,-1,-1,-1,-1,-1,-1,-1,-1,-1],"split_conditions":[6.939903E1,1.618286E1,9.9218645E0,1.0288873E3,9.8866844E1,3.75883E1,1.3718622E0,7.335182E0,7.6591485E-4,5.0395954E1,6.014077E1,7.234365E0,7.944447E1,1.6173892E-2,-5.844566E-2,-2.082087E-2,-6.1118137E-2,3.685703E1,6.715923E0,-1.7547766E-2,1.4071053E2,3.0721186E1,1.6415024E1,1.0033279E3,2.438415E1,-5.2631807E-2,3.8705196E1,3.8267825E3,9.58177E1,9.751751E-2,1.3960244E-2,-6.0223915E-2,1.7063621E-2,7.998842E-2,7.377895E0,1.00255084E3,1.02120544E3,-5.32722E-2,1.6576326E-2,-3.0934481E-2,5.976336E-2,-1.4838544E-2,-5.7341486E-2,-5.0016757E-2,4.3561064E-2,-5.4034095E-2,2.7543364E-2,-4.0587477E-2,5.486699E-2,7.629701E-2,1.8030463E-2],"split_indices":[10,7,8,28,11,3,26,24,0,13,4,8,13,0,0,0,0,13,33,0,2,7,18,16,30,0,3,5,11,0,0,0,0,0,29,22,16,0,0,0,0,0,0,0,0,0,0,0,0,0,0],"split_type":[0,0,0,0,0,0,0,0,0,0,0,0,0,0,0,0,0,0,0,0,0,0,0,0,0,0,0,0,0,0,0,0,0,0,0,0,0,0,0,0,0,0,0,0,0,0,0,0,0,0,0],"sum_hessian":[1.939376E2,9.143243E1,1.0250519E2,3.41283E1,5.7304127E1,8.7344894E1,1.5160292E1,3.1105297E1,3.023004E0,4.6773365E1,1.0530764E1,2.3950583E1,6.339431E1,4.224063E0,1.0936229E1,4.894414E0,2.6210882E1,1.3790528E1,3.2982834E1,4.0560246E0,6.474739E0,1.1367514E1,1.2583069E1,5.4362625E1,9.031685E0,4.1062093E0,9.684319E0,2.4608562E1,8.374272E0,3.3184965E0,3.1562426E0,8.354246E0,3.013268E0,4.265101E0,8.317968E0,8.122124E0,4.6240505E1,4.722556E0,4.3091283E0,3.8161552E0,5.8681636E0,3.970879E0,2.0637684E1,3.1432612E0,5.231011E0,4.7388053E0,3.5791626E0,4.4621525E0,3.6599708E0,3.288137E1,1.3359133E1],"tree_param":{"num_deleted":"0","num_feature":"36","num_nodes":"51","size_leaf_vector":"1"}},{"base_weights":[2.1868837E-1,5.4729164E-1,1.8743823E-1,-1.403507E-2,6.8714514E-2,1.3899197E-1,3.764115E-1,-1.8016936E-1,1.8764527E-1,5.03976E-1,-7.964867E-2,-5.630165E-1,7.741933E-3,4.3798956E-1,1.3676478E-1,3.153805E-1,7.433727E-2,-4.3504562E-2,4.767705E-2,-2.6866585E-2,-7.071151E-2,3.8230393E-2,-2.2470273E-1,6.8936384E-1,-7.780432E-2,1.7549996E-1,-3.401583E-1,-6.985049E-2,6.0621274E-1,1.2128921E-2,-5.794924E-2,7.687362E-2,3.211467E-2,-4.901668E-2,2.803239E-2,-2.7092455E-2,2.1943254E-2,1.6653176E-2,-5.9564043E-2,4.5283176E-2,-4.2355206E-2,7.192787E-2,2.1374583E-2],"categories":[],"categories_nodes":[],"categories_segments":[],"categories_sizes":[],"default_left":[0,0,0,0,0,0,0,0,0,0,0,0,0,0,0,0,0,0,0,0,0,0,0,0,0,0,0,0,0,0,0,0,0,0,0,0,0,0,0,0,0,0,0],"id":25,"left_children":[1,3,5,-1,-1,7,9,11,13,15,17,19,21,23,25,27,-1,-1,-1,-1,-1,-1,29,31,33,35,37,39,41,-1,-1,-1,-1,-1,-1,-1,-1,-1,-1,-1,-1,-1,-1],"loss_changes":[2.4525433E0,2.124373E0,2.0417576E0,0E0,0E0,2.885509E0,2.7214437E0,1.7886641E0,1.97613E0,1.3977585E0,2.370255E0,1.569488E-1,1.6202512E0,3.4954534E0,2.5406828E0,2.502478E0,0E0,0E0,0E0,0E0,0E0,0E0,1.482495E0,2.7770233E-1,1.5546206E0,2.5084667E0,1.4491707E0,2.1038942E0,4.0606022E-1,0E0,0E0,0E0,0E0,0E0,0E0,0E0,0E0,0E0,0E0,0E0,0E0,0E0,0E0],"parents":[2147483647,0,0,1,1,2,2,5,5,6,6,7,7,8,8,9,9,10,10,11,11,12,12,13,13,14,14,15,15,22,22,23,23,24,24,25,25,26,26,27,27,28,28],"right_children":[2,4,6,-1,-1,8,10,12,14,16,18,20,22,24,26,28,-1,-1,-1,-1,-1,-1,30,32,34,36,38,40,42,-1,-1,-1,-1,-1,-1,-1,-1,-1,-1,-1,-1,-1,-1],"split_conditions":[2.7924301E1,1.7519141E0,1.02245905E3,-1.403507E-2,6.8714514E-2,3.400471E1,9.825186E1,1.8337177E0,3.8393375E1,2.3620989E1,2.72804E1,6.1328804E1,1.7519141E0,6.7695816E1,3.498037E1,3.3070912E0,7.433727E-2,-4.3504562E-2,4.767705E-2,-2.6866585E-2,-7.071151E-2,3.8230393E-2,6.1505318E1,4.3119783E0,7.266655E1,4.0347603E1,2.9581356E0,1.9151022E0,7.621074E0,1.2128921E-2,-5.794924E-2,7.687362E-2,3.211467E-2,-4.901668E-2,2.803239E-2,-2.7092455E-2,2.1943254E-2,1.6653176E-2,-5.9564043E-2,4.5283176E-2,-4.2355206E-2,7.192787E-2,2.1374583E-2],"split_indices":[3,20,28,0,0,3,11,15,3,24,7,25,20,31,12,15,0,0,0,0,0,0,31,15,31,3,33,33,29,0,0,0,0,0,0,0,0,0,0,0,0,0,0],"split_type":[0,0,0,0,0,0,0,0,0,0,0,0,0,0,0,0,0,0,0,0,0,0,0,0,0,0,0,0,0,0,0,0,0,0,0,0,0,0,0,0,0,0,0],"sum_hessian":[2.4782176E2,2.0087133E1,2.2773462E2,3.3942869E0,1.6692846E1,1.8264598E2,4.508865E1,2.3802242E1,1.5884373E2,3.5151394E1,9.937253E0,7.179229E0,1.6623014E1,2.5545496E1,1.3329823E2,2.0958107E1,1.4193288E1,6.1971397E0,3.7401133E0,3.3009098E0,3.878319E0,6.118667E0,1.0504347E1,1.694888E1,8.596616E0,1.2386969E2,9.428545E0,9.342728E0,1.161538E1,5.65131E0,4.8530364E0,1.3048449E1,3.900431E0,3.824384E0,4.772232E0,1.0634951E1,1.1323474E2,3.2771795E0,6.1513658E0,3.6575382E0,5.6851892E0,8.37105E0,3.2443302E0],"tree_param":{"num_deleted":"0","num_feature":"36","num_nodes":"43","size_leaf_vector":"1"}},{"base_weights":[-2.2925627E-1,2.0836477E-1,-3.6276022E-1,5.14542E-1,-1.707243E-1,-1.5509741E-1,-5.057755E-1,7.101738E-1,-9.111058E-3,-4.0870827E-1,2.3713851E-1,-3.3573905E-1,3.6348018E-1,-1.3150436E-1,-5.634412E-1,9.117663E-2,1.9505681E-2,-5.540162E-2,-1.5098354E-3,4.382847E-2,-2.4723546E-3,-5.192632E-1,2.2224216E-1,-9.952826E-2,9.1918565E-2,4.2774536E-2,-4.200017E-2,-3.1486282E-1,-5.923751E-2,1.7462414E-3,-5.8234103E-2,5.6199085E-2,-1.8664157E-2,-4.9686473E-2,4.472468E-2,-4.9639944E-2,9.3614723E-4],"categories":[],"categories_nodes":[],"categories_segments":[],"categories_sizes":[],"default_left":[0,0,0,0,0,0,0,0,0,0,0,0,0,0,0,0,0,0,0,0,0,0,0,0,0,0,0,0,0,0,0,0,0,0,0,0,0],"id":26,"left_children":[1,3,5,7,9,11,13,15,-1,17,19,21,23,25,27,-1,-1,-1,-1,-1,-1,29,31,33,-1,-1,-1,35,-1,-1,-1,-1,-1,-1,-1,-1,-1],"loss_changes":[9.3448305E0,4.466131E0,3.5428333E0,2.5667157E0,1.8057353E0,4.9154263E0,1.4747429E0,1.4914227E0,0E0,6.485127E-1,3.8586128E-1,4.0548296E0,3.6163638E0,1.9358952E0,2.5853157E-1,0E0,0E0,0E0,0E0,0E0,0E0,1.000381E0,1.5248591E0,2.041816E0,0E0,0E0,0E0,5.1001245E-1,0E0,0E0,0E0,0E0,0E0,0E0,0E0,0E0,0E0],"parents":[2147483647,0,0,1,1,2,2,3,3,4,4,5,5,6,6,7,7,9,9,10,10,11,11,12,12,13,13,14,14,21,21,22,22,23,23,27,27],"right_children":[2,4,6,8,10,12,14,16,-1,18,20,22,24,26,28,-1,-1,-1,-1,-1,-1,30,32,34,-1,-1,-1,36,-1,-1,-1,-1,-1,-1,-1,-1,-1],"split_conditions":[5.973109E1,6.757417E0,6.7503443E0,1.01683185E3,7.752115E1,9.681213E0,9.9920154E2,7.0489454E0,-9.111058E-3,8.403478E0,3.9826492E1,7.596982E1,2.8472927E1,6.842788E1,8.039644E0,9.117663E-2,1.9505681E-2,-5.540162E-2,-1.5098354E-3,4.382847E-2,-2.4723546E-3,2.9874327E0,1.00900085E3,1.403163E2,9.1918565E-2,4.2774536E-2,-4.200017E-2,4.019151E0,-5.923751E-2,1.7462414E-3,-5.8234103E-2,5.6199085E-2,-1.8664157E-2,-4.9686473E-2,4.472468E-2,-4.9639944E-2,9.3614723E-4],"split_indices":[10,9,9,16,0,8,22,17,0,8,3,13,12,0,12,0,0,0,0,0,0,7,16,2,0,0,0,21,0,0,0,0,0,0,0,0,0],"split_type":[0,0,0,0,0,0,0,0,0,0,0,0,0,0,0,0,0,0,0,0,0,0,0,0,0,0,0,0,0,0,0,0,0,0,0,0,0],"sum_hessian":[1.5765439E2,3.6721596E1,1.2093279E2,2.0116709E1,1.6604885E1,5.016952E1,7.0763275E1,1.5074817E1,5.041893E0,1.0484948E1,6.119938E0,3.7469833E1,1.2699687E1,9.885206E0,6.0878067E1,1.0281216E1,4.7936015E0,7.360256E0,3.1246915E0,3.0801978E0,3.0397403E0,2.8248184E1,9.221649E0,7.3754396E0,5.3242474E0,3.1997843E0,6.685422E0,7.5860953E0,5.3291973E1,3.0467467E0,2.5201437E1,4.8321114E0,4.389538E0,4.324295E0,3.0511446E0,4.5227323E0,3.0633628E0],"tree_param":{"num_deleted":"0","num_feature":"36","num_nodes":"37","size_leaf_vector":"1"}},{"base_weights":[-5.5945892E-2,-3.2638195E-1,1.679596E-1,-5.730501E-1,-2.1629879E-1,2.4644521E-1,-4.4206265E-1,-2.5043562E-2,-6.045332E-2,-4.9914688E-1,-7.287928E-2,3.2425532E-1,-2.1719751E-1,-5.6661833E-2,-5.1151603E-3,-2.2807564E-3,-5.8215953E-2,-1.916026E-1,4.8174447E-1,6.2815234E-2,4.7597137E-1,-5.6843307E-2,2.3802366E-2,1.2041347E-1,-3.3562315E-1,-6.6162418E-3,8.783021E-2,3.2952216E-1,-2.8171903E-1,6.883202E-1,2.4700981E-1,-5.0849255E-2,4.2640533E-2,-1.504533E-2,-5.8298744E-2,7.1144454E-2,-9.0937745E-3,-5.079059E-2,6.5330155E-3,7.984272E-2,2.5116599E-3,-7.4687973E-3,5.163088E-2],"categories":[],"categories_nodes":[],"categories_segments":[],"categories_sizes":[],"default_left":[0,0,0,0,0,0,0,0,0,0,0,0,0,0,0,0,0,0,0,0,0,0,0,0,0,0,0,0,0,0,0,0,0,0,0,0,0,0,0,0,0,0,0],"id":27,"left_children":[1,3,5,7,9,11,13,-1,-1,15,17,19,21,-1,-1,-1,-1,23,25,27,29,-1,-1,31,33,-1,-1,35,37,39,41,-1,-1,-1,-1,-1,-1,-1,-1,-1,-1,-1,-1],"loss_changes":[1.1820384E1,2.2750397E0,5.229837E0,1.19338036E-1,2.5067954E0,3.5123334E0,5.82098E-1,0E0,0E0,8.1402874E-1,2.9085839E0,3.2264671E0,2.42323E0,0E0,0E0,0E0,0E0,1.6556414E0,1.7584559E0,2.9689076E0,2.3483915E0,0E0,0E0,2.5429544E0,1.0508444E0,0E0,0E0,2.9717517E0,1.1475465E0,1.9015036E0,2.3329349E0,0E0,0E0,0E0,0E0,0E0,0E0,0E0,0E0,0E0,0E0,0E0,0E0],"parents":[2147483647,0,0,1,1,2,2,3,3,4,4,5,5,6,6,9,9,10,10,11,11,12,12,17,17,18,18,19,19,20,20,23,23,24,24,27,27,28,28,29,29,30,30],"right_children":[2,4,6,8,10,12,14,-1,-1,16,18,20,22,-1,-1,-1,-1,24,26,28,30,-1,-1,32,34,-1,-1,36,38,40,42,-1,-1,-1,-1,-1,-1,-1,-1,-1,-1,-1,-1],"split_conditions":[6.910489E1,3.9826492E1,1.0307006E1,1.2097658E0,1.2714819E1,7.944447E1,7.219437E3,-2.5043562E-2,-6.045332E-2,7.335182E0,9.855135E1,7.2451534E0,2.0446943E1,-5.6661833E-2,-5.1151603E-3,-2.2807564E-3,-5.8215953E-2,4.959769E1,5.973109E1,7.7422676E1,2.5347507E0,-5.6843307E-2,2.3802366E-2,3.3025566E1,3.8517766E0,-6.6162418E-3,8.783021E-2,3.2166204E0,4.388467E1,9.396888E0,5.647632E0,-5.0849255E-2,4.2640533E-2,-1.504533E-2,-5.8298744E-2,7.1144454E-2,-9.0937745E-3,-5.079059E-2,6.5330155E-3,7.984272E-2,2.5116599E-3,-7.4687973E-3,5.163088E-2],"split_indices":[10,3,8,26,7,13,5,0,0,24,11,8,7,0,0,0,0,13,10,10,26,0,0,13,32,0,0,15,3,17,29,0,0,0,0,0,0,0,0,0,0,0,0],"split_type":[0,0,0,0,0,0,0,0,0,0,0,0,0,0,0,0,0,0,0,0,0,0,0,0,0,0,0,0,0,0,0,0,0,0,0,0,0,0,0,0,0,0,0],"sum_hessian":[1.9330475E2,8.7347534E1,1.0595721E2,2.5655203E1,6.1692333E1,9.440681E1,1.1550396E1,3.0771863E0,2.2578016E1,1.9922127E1,4.1770206E1,8.10974E1,1.3309409E1,8.418526E0,3.13187E0,3.1457992E0,1.6776329E1,3.494449E1,6.8257174E0,3.029922E1,5.079818E1,7.37239E0,5.93702E0,1.1087556E1,2.3856934E1,3.215775E0,3.6099427E0,1.710312E1,1.31961E1,2.531432E1,2.548386E1,3.4123523E0,7.6752033E0,1.4563408E1,9.293527E0,8.599631E0,8.503489E0,7.7085853E0,5.4875145E0,2.1535107E1,3.779214E0,1.19415E1,1.3542359E1],"tree_param":{"num_deleted":"0","num_feature":"36","num_nodes":"43","size_leaf_vector":"1"}},{"base_weights":[1.8262592E-1,5.624931E-1,1.5277216E-1,7.374144E-2,9.2882505E-3,2.7032822E-1,2.7299408E-2,-4.300623E-2,3.0526587E-1,4.0477625E-1,-6.090464E-2,4.3440917E-1,8.31843E-2,-1.1891566E-2,5.284656E-1,1.956503E-1,-2.530858E-1,5.796717E-1,-7.98696E-2,7.5495206E-2,-2.7808849E-2,1.0026811E-1,7.954206E-2,-4.3666713E-2,3.060604E-1,-4.9165148E-1,-5.0565448E-2,6.2934965E-2,9.679404E-3,6.316924E-2,-3.153188E-2,-2.1244502E-2,4.7317732E-2,3.7590057E-2,-2.0663861E-2,5.8626574E-2,1.0051365E-2,-5.9787273E-2,1.2236586E-2,-2.9324276E-2,3.3322345E-2],"categories":[],"categories_nodes":[],"categories_segments":[],"categories_sizes":[],"default_left":[0,0,0,0,0,0,0,0,0,0,0,0,0,0,0,0,0,0,0,0,0,0,0,0,0,0,0,0,0,0,0,0,0,0,0,0,0,0,0,0,0],"id":28,"left_children":[1,3,5,-1,-1,7,9,-1,11,13,15,17,19,-1,21,23,25,27,29,-1,31,33,-1,-1,35,37,39,-1,-1,-1,-1,-1,-1,-1,-1,-1,-1,-1,-1,-1,-1],"loss_changes":[2.5971246E0,1.316968E0,3.2483392E0,0E0,0E0,2.9170828E0,3.6165152E0,0E0,3.0906296E0,1.3948917E0,4.4039273E0,5.178405E0,3.1021252E0,0E0,1.8428011E0,2.8136177E0,2.4357243E0,1.2269821E0,2.881358E0,0E0,3.4701424E0,7.208466E-1,0E0,0E0,1.8571911E0,1.5907855E0,2.7670052E0,0E0,0E0,0E0,0E0,0E0,0E0,0E0,0E0,0E0,0E0,0E0,0E0,0E0,0E0],"parents":[2147483647,0,0,1,1,2,2,5,5,6,6,8,8,9,9,10,10,11,11,12,12,14,14,15,15,16,16,17,17,18,18,20,20,21,21,24,24,25,25,26,26],"right_children":[2,4,6,-1,-1,8,10,-1,12,14,16,18,20,-1,22,24,26,28,30,-1,32,34,-1,-1,36,38,40,-1,-1,-1,-1,-1,-1,-1,-1,-1,-1,-1,-1,-1,-1],"split_conditions":[2.7924301E1,6.3656406E1,6.9977617E0,7.374144E-2,9.2882505E-3,9.9700946E2,1.8094935E0,-4.300623E-2,6.9932556E1,1.13463646E2,9.637111E1,9.879661E1,1.00142365E3,-1.1891566E-2,7.287516E1,2.3128414E0,2.767887E2,6.1265312E1,1.0033279E3,7.5495206E-2,1.01982324E3,1.3326569E2,7.954206E-2,-4.3666713E-2,7.1498566E1,8.682463E0,2.3294508E1,6.2934965E-2,9.679404E-3,6.316924E-2,-3.153188E-2,-2.1244502E-2,4.7317732E-2,3.7590057E-2,-2.0663861E-2,5.8626574E-2,1.0051365E-2,-5.9787273E-2,1.2236586E-2,-2.9324276E-2,3.3322345E-2],"split_indices":[3,1,9,0,0,16,33,0,13,2,11,11,34,0,0,33,6,3,16,0,28,2,0,0,0,29,12,0,0,0,0,0,0,0,0,0,0,0,0,0,0],"split_type":[0,0,0,0,0,0,0,0,0,0,0,0,0,0,0,0,0,0,0,0,0,0,0,0,0,0,0,0,0,0,0,0,0,0,0,0,0,0,0,0,0],"sum_hessian":[2.355915E2,1.5866051E1,2.1972545E2,1.1144617E1,4.7214336E0,1.12845474E2,1.06879974E2,4.8242846E0,1.0802119E2,1.9564201E1,8.731577E1,6.769791E1,4.0323284E1,3.7453325E0,1.581887E1,3.738718E1,4.9928596E1,5.2688442E1,1.5009465E1,4.895044E0,3.5428238E1,6.6030827E0,9.215786E0,5.11852E0,3.226866E1,2.2268728E1,2.7659866E1,4.7498512E1,5.18993E0,3.3132908E0,1.1696175E1,2.630836E1,9.119879E0,3.3603518E0,3.242731E0,1.2870761E1,1.93979E1,1.9006937E1,3.2617908E0,1.7089663E1,1.0570206E1],"tree_param":{"num_deleted":"0","num_feature":"36","num_nodes":"41","size_leaf_vector":"1"}},{"base_weights":[-2.0297812E-1,2.1890815E-2,-4.2189595E-1,4.5601478E-1,-1.5456538E-1,-4.715935E-1,3.1490862E-2,6.2948644E-1,-1.0270796E-2,-3.240286E-1,3.7602326E-1,-4.750252E-2,-5.220522E-1,2.9790393E-1,9.2191435E-2,-5.1956564E-1,1.7637739E-1,1.0179549E-1,4.5962658E-2,-4.9062923E-2,3.7509155E-2,-1.5914823E-1,-5.5913603E-1,-1.2090317E-2,5.6426194E-2,-5.756749E-2,-1.7118396E-2,6.618684E-2,-9.381831E-2,4.0795073E-2,-4.8555184E-2,2.5946274E-2,-4.8566252E-2,-5.7302934E-1,-2.366223E-2,-3.5501286E-2,1.989777E-2,-2.2031814E-2,-5.8889486E-2],"categories":[],"categories_nodes":[],"categories_segments":[],"categories_sizes":[],"default_left":[0,0,0,0,0,0,0,0,0,0,0,0,0,0,0,0,0,0,0,0,0,0,0,0,0,0,0,0,0,0,0,0,0,0,0,0,0,0,0],"id":29,"left_children":[1,3,5,7,9,11,-1,13,-1,15,17,19,21,23,-1,25,27,-1,29,-1,-1,31,33,-1,-1,-1,-1,-1,35,-1,-1,-1,-1,37,-1,-1,-1,-1,-1],"loss_changes":[7.789831E0,6.1158566E0,3.082861E0,2.299693E0,5.2341795E0,1.5902367E0,0E0,1.4452043E0,0E0,4.3608246E0,2.9674585E0,1.8928102E0,8.1736374E-1,1.1602551E0,0E0,5.1965046E-1,1.7681105E0,0E0,2.2073033E0,0E0,0E0,1.1705115E0,1.3641548E-1,0E0,0E0,0E0,0E0,0E0,7.7660865E-1,0E0,0E0,0E0,0E0,1.9199562E-1,0E0,0E0,0E0,0E0,0E0],"parents":[2147483647,0,0,1,1,2,2,3,3,4,4,5,5,7,7,9,9,10,10,11,11,12,12,13,13,15,15,16,16,18,18,21,21,22,22,28,28,33,33],"right_children":[2,4,6,8,10,12,-1,14,-1,16,18,20,22,24,-1,26,28,-1,30,-1,-1,32,34,-1,-1,-1,-1,-1,36,-1,-1,-1,-1,38,-1,-1,-1,-1,-1],"split_conditions":[6.8264556E0,6.01679E1,1.0667309E1,1.01683185E3,9.852515E0,5.4644226E1,3.1490862E-2,1.9830334E1,-1.0270796E-2,7.62545E1,3.0873861E0,2.2161621E1,9.9671466E2,6.644974E1,9.2191435E-2,9.268623E0,7.839831E1,1.0179549E-1,6.009377E0,-4.9062923E-2,3.7509155E-2,5.706188E1,6.5116714E1,-1.2090317E-2,5.6426194E-2,-5.756749E-2,-1.7118396E-2,6.618684E-2,6.7610526E0,4.0795073E-2,-4.8555184E-2,2.5946274E-2,-4.8566252E-2,5.6134987E-1,-2.366223E-2,-3.5501286E-2,1.989777E-2,-2.2031814E-2,-5.8889486E-2],"split_indices":[9,10,23,16,8,10,0,30,0,13,35,18,22,19,0,35,19,0,9,0,0,1,3,0,0,0,0,0,23,0,0,0,0,27,0,0,0,0,0],"split_type":[0,0,0,0,0,0,0,0,0,0,0,0,0,0,0,0,0,0,0,0,0,0,0,0,0,0,0,0,0,0,0,0,0,0,0,0,0,0,0],"sum_hessian":[1.570528E2,7.7917336E1,7.913546E1,2.2060064E1,5.5857273E1,7.4472244E1,4.6632147E0,1.6736944E1,5.3231215E0,4.2630833E1,1.322644E1,8.125038E0,6.6347206E1,8.789406E0,7.9475374E0,3.0625444E1,1.2005389E1,3.783603E0,9.442838E0,3.8875787E0,4.237459E0,6.641801E0,5.9705406E1,3.6291742E0,5.1602316E0,2.5815289E1,4.8101563E0,3.7742255E0,8.231163E0,5.755516E0,3.687321E0,3.0004275E0,3.6413734E0,5.649495E1,3.2104602E0,4.2380414E0,3.9931219E0,3.0726466E0,5.3422302E1],"tree_param":{"num_deleted":"0","num_feature":"36","num_nodes":"39","size_leaf_vector":"1"}},{"base_weights":[-8.672322E-2,-2.898757E-1,9.77125E-2,-3.4782186E-1,1.2311962E-1,1.7721196E-1,-4.9638506E-2,-2.0926215E-1,-5.149378E-1,-2.3737013E-1,6.696328E-2,2.6271278E-1,-3.2664692E-1,-5.8081396E-2,-7.466175E-2,-6.9380336E-2,-6.104798E-2,-5.0370015E-2,1.2904364E-2,-4.047814E-3,4.03224E-1,-4.953541E-2,1.9326536E-2,-4.8210006E-2,1.129715E-1,3.0554516E-2,-4.6326064E-2,-3.6339867E-1,3.1196138E-1,5.595882E-1,2.915382E-2,5.60578E-2,-1.2762464E-2,6.0175788E-3,-5.870266E-2,5.1858842E-2,-2.0172982E-2,1.0274203E-4,6.2401194E-2,5.4849226E-2,-1.3696171E-2],"categories":[],"categories_nodes":[],"categories_segments":[],"categories_sizes":[],"default_left":[0,0,0,0,0,0,0,0,0,0,0,0,0,0,0,0,0,0,0,0,0,0,0,0,0,0,0,0,0,0,0,0,0,0,0,0,0,0,0,0,0],"id":30,"left_children":[1,3,5,7,9,11,-1,13,15,17,-1,19,21,-1,23,25,-1,-1,-1,27,29,-1,-1,-1,31,-1,-1,33,35,37,39,-1,-1,-1,-1,-1,-1,-1,-1,-1,-1],"loss_changes":[7.150941E0,2.2136517E0,4.829223E0,1.7402916E0,2.5033653E0,3.9318056E0,0E0,2.2230177E0,1.468545E0,8.367677E-1,0E0,2.883224E0,1.2708445E0,0E0,2.685371E0,1.2336316E0,0E0,0E0,0E0,3.2377262E0,2.929554E0,0E0,0E0,0E0,2.6963232E0,0E0,0E0,1.2985256E0,1.7156003E0,1.2754688E0,1.4469573E0,0E0,0E0,0E0,0E0,0E0,0E0,0E0,0E0,0E0,0E0],"parents":[2147483647,0,0,1,1,2,2,3,3,4,4,5,5,7,7,8,8,9,9,11,11,12,12,14,14,15,15,19,19,20,20,24,24,27,27,28,28,29,29,30,30],"right_children":[2,4,6,8,10,12,-1,14,16,18,-1,20,22,-1,24,26,-1,-1,-1,28,30,-1,-1,-1,32,-1,-1,34,36,38,40,-1,-1,-1,-1,-1,-1,-1,-1,-1,-1],"split_conditions":[6.939903E1,7.0903244E1,1.0307006E1,3.8198364E0,3.4913793E0,7.944447E1,-4.9638506E-2,1.6541688E0,3.3819473E0,4.5790815E0,6.696328E-2,7.1353974E0,8.327754E1,-5.8081396E-2,5.8703423E1,8.403478E0,-6.104798E-2,-5.0370015E-2,1.2904364E-2,4.388467E1,1.0178647E3,-4.953541E-2,1.9326536E-2,-4.8210006E-2,7.0010977E0,3.0554516E-2,-4.6326064E-2,1.1888944E2,4.37604E0,9.99354E2,1.2042706E0,5.60578E-2,-1.2762464E-2,6.0175788E-3,-5.870266E-2,5.1858842E-2,-2.0172982E-2,1.0274203E-4,6.2401194E-2,5.4849226E-2,-1.3696171E-2],"split_indices":[10,4,8,27,26,13,0,33,33,33,0,8,10,0,10,8,0,0,0,3,22,0,0,0,8,0,0,2,14,16,14,0,0,0,0,0,0,0,0,0,0],"split_type":[0,0,0,0,0,0,0,0,0,0,0,0,0,0,0,0,0,0,0,0,0,0,0,0,0,0,0,0,0,0,0,0,0,0,0,0,0,0,0,0,0],"sum_hessian":[1.8909575E2,8.971009E1,9.938566E1,7.881026E1,1.0899833E1,8.8274826E1,1.1110827E1,4.4317654E1,3.4492603E1,6.908517E0,3.991316E0,7.58776E1,1.23972225E1,1.0903757E1,3.34139E1,6.395151E0,2.8097452E1,3.7836633E0,3.1248536E0,2.6513298E1,4.9364307E1,9.395649E0,3.0015733E0,1.0040962E1,2.3372934E1,3.3913107E0,3.0038407E0,1.2335726E1,1.4177571E1,3.4462696E1,1.4901611E1,7.706242E0,1.5666693E1,4.514917E0,7.820809E0,1.0103863E1,4.073709E0,3.6688995E0,3.0793797E1,3.053469E0,1.1848143E1],"tree_param":{"num_deleted":"0","num_feature":"36","num_nodes":"41","size_leaf_vector":"1"}},{"base_weights":[1.8900327E-1,2.4889807E-1,7.512625E-3,3.657957E-1,1.1802866E-1,-3.6969963E-1,1.25493E-1,5.735902E-1,2.5038925E-1,4.045156E-1,-1.4605653E-1,-5.5308867E-1,2.3786722E-2,4.9677402E-1,-3.0542962E-2,2.1320823E-1,6.8158275E-1,4.789939E-1,1.21075094E-1,1.7342311E-1,5.936433E-1,-3.2601967E-1,3.2907656E-1,-7.435049E-2,-5.441218E-3,6.9574796E-2,-1.31259905E-2,-1.250988E-1,5.834193E-2,-2.8093835E-2,5.3614885E-2,7.354718E-2,2.3912461E-2,1.6665825E-1,6.3599545E-1,-1.5113074E-1,3.113664E-1,4.3707383E-1,-1.1489236E-1,7.1078256E-2,9.154334E-3,-4.1233394E-1,1.3818678E-2,-5.5146213E-3,6.2374003E-2,3.4534824E-1,-2.8151232E-1,6.7437276E-2,-4.131375E-2,7.4319504E-2,1.8028645E-2,-7.248071E-2,2.077656E-2,4.532091E-3,5.7895016E-2,-7.3176892E-3,7.19989E-2,5.0533056E-2,-4.727314E-2,1.3296136E-3,-5.2742667E-2,-2.4292585E-3,6.6918425E-2,-7.180324E-2,-1.0243807E-2],"categories":[],"categories_nodes":[],"categories_segments":[],"categories_sizes":[],"default_left":[0,0,0,0,0,0,0,0,0,0,0,0,0,0,0,0,0,0,0,0,0,0,0,0,0,0,0,0,0,0,0,0,0,0,0,0,0,0,0,0,0,0,0,0,0,0,0,0,0,0,0,0,0,0,0,0,0,0,0,0,0,0,0,0,0],"id":31,"left_children":[1,3,5,7,9,11,13,15,17,19,21,23,-1,25,27,29,31,33,35,37,39,41,43,-1,-1,-1,-1,45,-1,-1,-1,-1,-1,47,49,51,53,55,57,-1,-1,59,-1,-1,-1,61,63,-1,-1,-1,-1,-1,-1,-1,-1,-1,-1,-1,-1,-1,-1,-1,-1,-1,-1],"loss_changes":[2.6546164E0,2.7672892E0,2.7908795E0,2.171935E0,6.7283797E0,1.7968717E0,2.7798986E0,1.1663847E0,1.8296704E0,1.7566438E0,4.092226E0,1.0782666E0,0E0,1.8632052E0,2.0783544E0,1.6229497E0,4.316082E-1,1.0087256E0,2.2289457E0,1.6132367E0,1.286849E0,1.4314442E0,1.5402163E0,0E0,0E0,0E0,0E0,2.3604343E0,0E0,0E0,0E0,0E0,0E0,2.915991E0,5.8768797E-1,3.857507E0,1.761924E0,1.633204E0,2.594444E0,0E0,0E0,1.4362693E0,0E0,0E0,0E0,9.886608E-1,1.7738491E0,0E0,0E0,0E0,0E0,0E0,0E0,0E0,0E0,0E0,0E0,0E0,0E0,0E0,0E0,0E0,0E0,0E0,0E0],"parents":[2147483647,0,0,1,1,2,2,3,3,4,4,5,5,6,6,7,7,8,8,9,9,10,10,11,11,13,13,14,14,15,15,16,16,17,17,18,18,19,19,20,20,21,21,22,22,27,27,33,33,34,34,35,35,36,36,37,37,38,38,41,41,45,45,46,46],"right_children":[2,4,6,8,10,12,14,16,18,20,22,24,-1,26,28,30,32,34,36,38,40,42,44,-1,-1,-1,-1,46,-1,-1,-1,-1,-1,48,50,52,54,56,58,-1,-1,60,-1,-1,-1,62,64,-1,-1,-1,-1,-1,-1,-1,-1,-1,-1,-1,-1,-1,-1,-1,-1,-1,-1],"split_conditions":[9.825186E1,6.939903E1,1.3753257E0,2.0929246E0,6.9977617E0,1.02370703E3,5.853524E1,1.2295024E1,5.7036026E1,1.0123092E3,6.801226E1,6.7844406E1,2.3786722E-2,8.021692E1,8.110911E0,1.0087022E3,8.621207E3,2.842714E0,6.8264556E0,6.078729E3,2.8394705E1,3.2913082E1,7.6193954E1,-7.435049E-2,-5.441218E-3,6.9574796E-2,-1.31259905E-2,1.0028568E3,5.834193E-2,-2.8093835E-2,5.3614885E-2,7.354718E-2,2.3912461E-2,2.2993202E1,1.0213226E3,1.00691943E3,3.4513443E0,3.4353298E3,2.321473E0,7.1078256E-2,9.154334E-3,6.3257403E0,1.3818678E-2,-5.5146213E-3,6.2374003E-2,5.8934788E1,2.829552E0,6.7437276E-2,-4.131375E-2,7.4319504E-2,1.8028645E-2,-7.248071E-2,2.077656E-2,4.532091E-3,5.7895016E-2,-7.3176892E-3,7.19989E-2,5.0533056E-2,-4.727314E-2,1.3296136E-3,-5.2742667E-2,-2.4292585E-3,6.6918425E-2,-7.180324E-2,-1.0243807E-2],"split_indices":[11,10,32,26,9,22,4,30,31,22,25,31,0,10,9,22,5,20,9,5,30,12,10,0,0,0,0,34,0,0,0,0,0,30,16,34,20,5,21,0,0,7,0,0,0,1,29,0,0,0,0,0,0,0,0,0,0,0,0,0,0,0,0,0,0],"split_type":[0,0,0,0,0,0,0,0,0,0,0,0,0,0,0,0,0,0,0,0,0,0,0,0,0,0,0,0,0,0,0,0,0,0,0,0,0,0,0,0,0,0,0,0,0,0,0,0,0,0,0,0,0,0,0,0,0,0,0,0,0,0,0,0,0],"sum_hessian":[2.4337918E2,1.8271043E2,6.066876E1,9.5558624E1,8.71518E1,1.3946095E1,4.672266E1,3.27038E1,6.2854828E1,4.1547817E1,4.5603985E1,1.0781466E1,3.1646302E0,1.3179317E1,3.3543343E1,8.226251E0,2.4477549E1,2.173213E1,4.1122696E1,1.9562113E1,2.1985704E1,3.330362E1,1.23003645E1,7.4469447E0,3.3345206E0,9.926561E0,3.2527564E0,2.9756771E1,3.7865727E0,3.3026984E0,4.9235525E0,2.122965E1,3.247899E0,7.9593906E0,1.3772739E1,1.7004326E1,2.411837E1,9.948619E0,9.613493E0,1.7489752E1,4.4959536E0,2.8176283E1,5.127337E0,5.6916537E0,6.6087112E0,7.1234765E0,2.2633295E1,4.156507E0,3.8028839E0,1.0639161E1,3.1335783E0,6.1516705E0,1.0852655E1,1.2680317E1,1.1438052E1,3.813015E0,6.135604E0,3.3664448E0,6.2470484E0,6.1855745E0,2.1990707E1,3.7584262E0,3.3650503E0,5.708438E0,1.6924856E1],"tree_param":{"num_deleted":"0","num_feature":"36","num_nodes":"65","size_leaf_vector":"1"}},{"base_weights":[-2.2165458E-1,1.0585782E-1,-3.4504506E-1,5.727981E-1,-1.15375265E-1,1.5995426E-1,-3.863372E-1,8.5256696E-1,5.364124E-4,-4.8735548E-2,1.5090716E-1,-3.1701636E-2,6.259218E-2,-4.5626026E-1,-1.2561241E-1,3.419737E-2,1.0948443E-1,-4.838151E-2,3.41944E-1,-5.649222E-1,-2.605126E-1,-2.992892E-1,2.8171742E-1,8.1475936E-2,1.2801273E-2,-2.4527801E-2,-5.8045723E-2,2.0089606E-2,-3.3604288E-1,6.1042286E-3,-4.7374394E-2,-9.9086715E-3,6.2426176E-2,4.8779458E-2,-3.658807E-2,-4.3763112E-2,1.3697468E-2],"categories":[],"categories_nodes":[],"categories_segments":[],"categories_sizes":[],"default_left":[0,0,0,0,0,0,0,0,0,0,0,0,0,0,0,0,0,0,0,0,0,0,0,0,0,0,0,0,0,0,0,0,0,0,0,0,0],"id":32,"left_children":[1,3,5,7,9,11,13,15,-1,-1,17,-1,-1,19,21,-1,-1,-1,23,25,27,29,31,-1,33,-1,-1,-1,35,-1,-1,-1,-1,-1,-1,-1,-1],"loss_changes":[6.135793E0,4.4117017E0,2.3526669E0,2.1689177E0,2.9832504E0,2.201183E0,1.7994719E0,7.591896E-1,0E0,0E0,2.3339312E0,0E0,0E0,1.5529938E0,1.705642E0,0E0,0E0,0E0,2.2200098E0,1.0860634E-1,1.1265421E0,1.069425E0,1.0226882E0,0E0,1.8811231E0,0E0,0E0,0E0,1.3327496E0,0E0,0E0,0E0,0E0,0E0,0E0,0E0,0E0],"parents":[2147483647,0,0,1,1,2,2,3,3,4,4,5,5,6,6,7,7,10,10,13,13,14,14,18,18,19,19,20,20,21,21,22,22,24,24,28,28],"right_children":[2,4,6,8,10,12,14,16,-1,-1,18,-1,-1,20,22,-1,-1,-1,24,26,28,30,32,-1,34,-1,-1,-1,36,-1,-1,-1,-1,-1,-1,-1,-1],"split_conditions":[9.480657E0,4.0283367E1,4.478174E0,1.0152217E3,7.7522154E0,9.752528E1,9.762124E0,2.7327201E0,5.364124E-4,-4.8735548E-2,1.5229212E0,-3.1701636E-2,6.259218E-2,7.082481E1,2.8472927E1,3.419737E-2,1.0948443E-1,-4.838151E-2,1.0050609E3,5.0688793E1,9.998675E2,6.9112274E1,1.8859649E0,8.1475936E-2,1.24708595E2,-2.4527801E-2,-5.8045723E-2,2.0089606E-2,8.1084526E1,6.1042286E-3,-4.7374394E-2,-9.9086715E-3,6.2426176E-2,4.8779458E-2,-3.658807E-2,-4.3763112E-2,1.3697468E-2],"split_indices":[7,3,12,28,8,11,8,33,0,0,20,0,0,13,12,0,0,0,34,4,28,0,14,0,2,0,0,0,0,0,0,0,0,0,0,0,0],"split_type":[0,0,0,0,0,0,0,0,0,0,0,0,0,0,0,0,0,0,0,0,0,0,0,0,0,0,0,0,0,0,0,0,0,0,0,0,0],"sum_hessian":[1.499275E2,4.106684E1,1.08860664E2,1.269125E1,2.8375593E1,8.01116E0,1.008495E2,8.163704E0,4.527546E0,1.1491898E1,1.6883696E1,4.1168036E0,3.8943558E0,7.893119E1,2.1918312E1,3.4031494E0,4.7605543E0,3.5514352E0,1.333226E1,4.9543186E1,2.9388006E1,1.5552359E1,6.3659544E0,4.866339E0,8.465921E0,3.074376E0,4.646881E1,3.9004796E0,2.5487526E1,5.2854667E0,1.02668915E1,3.3511915E0,3.014763E0,3.6275842E0,4.838337E0,2.1043009E1,4.444518E0],"tree_param":{"num_deleted":"0","num_feature":"36","num_nodes":"37","size_leaf_vector":"1"}},{"base_weights":[-3.5889782E-2,-3.423948E-1,2.0304678E-1,-4.4719025E-1,-5.8124255E-2,3.290147E-1,-9.181092E-2,-4.848861E-1,1.7592385E-2,-2.3491904E-1,4.710589E-2,-2.583872E-1,3.945497E-1,-2.8485748E-1,2.7672458E-1,-2.2982545E-1,-5.514362E-2,-5.503084E-2,1.0915102E-1,1.1350429E-2,-5.1141065E-2,2.470822E-2,5.3574616E-1,7.3253274E-2,-4.7036782E-1,-2.571846E-2,5.014208E-1,-5.3638782E-2,2.054591E-2,4.6919934E-2,-4.7219124E-2,1.9516863E-1,-3.9241847E-2,-1.4793204E-1,6.448037E-1,-3.1614088E-2,4.0144052E-2,-5.815201E-2,-6.9043203E-3,7.107875E-3,7.435684E-2,-1.994293E-2,4.998757E-2,-5.278861E-2,3.0400759E-2,4.2730376E-2,7.796041E-2],"categories":[],"categories_nodes":[],"categories_segments":[],"categories_sizes":[],"default_left":[0,0,0,0,0,0,0,0,0,0,0,0,0,0,0,0,0,0,0,0,0,0,0,0,0,0,0,0,0,0,0,0,0,0,0,0,0,0,0,0,0,0,0,0,0,0,0],"id":33,"left_children":[1,3,5,7,9,11,13,15,-1,17,-1,19,21,23,25,27,-1,-1,29,-1,-1,31,